<?xml version="1.0"?>
<opencv_storage>
<opencv_ml_ann_mlp>
  <format>3</format>
  <layer_sizes>
    160 20 2</layer_sizes>
  <activation_function>SIGMOID_SYM</activation_function>
  <f_param1>0.66666666666666663</f_param1>
  <f_param2>1.7159</f_param2>
  <min_val>-0.94999999999999996</min_val>
  <max_val>0.94999999999999996</max_val>
  <min_val1>-0.97999999999999998</min_val1>
  <max_val1>0.97999999999999998</max_val1>
  <training_params>
    <train_method>BACKPROP</train_method>
    <dw_scale>0.001</dw_scale>
    <moment_scale>0.</moment_scale>
    <term_criteria>
      <epsilon>0.0001</epsilon>
      <iterations>3000</iterations></term_criteria></training_params>
  <input_scale>
    5.1002137097630351 -3.4696075054433746 5.1901997307999181
    -3.5790987608342495 5.3136289278851301 -3.6864677604056002
    5.453983235014098 -3.8097512042918567 5.5525321533646856
    -3.9239893749291408 5.6115681211502206 -3.9850174235009534
    5.5870696582135286 -3.9995160796542404 5.7048268613112985
    -4.0998930597424215 5.7555681324770367 -4.140299521419422
    5.8438471113851245 -4.2094358854296416 5.7635965147079178
    -4.1889402191248957 5.9750143612972719 -4.3837513986239678
    5.938816301827246 -4.3993098822511056 6.2975962762732509
    -4.7140315392541758 6.2393263850072209 -4.7156744909878849
    6.375563975430814 -4.8412532308543668 6.5785136157014357
    -5.02087463079895 6.6382905173644451 -5.1263421169199788
    6.7538635787695496 -5.2661467845305303 6.3482932023230934
    -4.9539265201678795 6.2670921230680037 -4.9119841614933941
    6.2080949182749414 -4.8695227461797463 6.2081979215432801
    -4.9154673389997958 6.1898733282978871 -4.9055560578494903
    6.6548262611921558 -5.3326300020595019 6.7208495521635925
    -5.4329795515848298 6.8798095920886091 -5.6134920454134338
    6.676472429016826 -5.4693406184409445 6.6262899805857405
    -5.4099318104720346 6.7080479103442965 -5.4952145111358641
    6.5982297874447138 -5.3944859741972033 6.6799907005808281
    -5.5117738278145616 6.7632578558815331 -5.6016592363343287
    6.6811927690784287 -5.5527276980274936 6.8052000269593744
    -5.6834886980401667 7.1559246123767819 -6.0144065001715221
    7.2440936014714428 -6.0964096442010218 7.0510450843494148
    -5.9107922512952156 7.0105853139167413 -5.8986874895901273
    7.2362036108259131 -6.1235665536247543 7.4279432602590818
    -6.327353200604259 7.180050430208043 -6.0992644427284359
    7.0190808145248251 -5.9819000501348754 6.9760368571975757
    -5.9393955438727053 7.1338960120840929 -6.1347468075411333
    7.1505658245338699 -6.1554982387782093 7.8144585991648512
    -6.7809858341529328 7.6884892502098694 -6.6668915007649909
    7.6493529353727299 -6.6278389801960893 8.0237479040516302
    -6.9922696534467415 8.2451507984759189 -7.2001134840933219
    8.0922779774783873 -7.0568940542462126 7.8220453151051039
    -6.7680826170386412 7.6971943329346209 -6.711643171804643
    7.7741204328389726 -6.7611622703631067 7.837370747859727
    -6.8142773275793616 8.0388521717487862 -6.9838712253524857
    7.9290502277731276 -6.8877001249292622 8.0376503258103753
    -6.971982279430855 7.9556477081421164 -6.8671214155255766
    7.6009180056729173 -6.5449529315501778 7.8322589139455232
    -6.7885803869123027 8.5528885097203222 -7.4921482757559996
    8.3336047586303881 -7.2320560595233019 7.8493060933016752
    -6.795525198717538 7.7039394509272325 -6.6247295887435484
    7.9229404659397646 -6.784221329916031 7.8270762285646125
    -6.7176750297296 8.281190457929398 -7.1711198177710749
    8.2178920160004676 -7.1340643215429989 8.0994103753096471
    -7.0251971711460861 8.0999884388438002 -7.0049203065647552
    7.7208161724612649 -6.6012148236987001 7.6105934837200584
    -6.4785937409745262 7.2782608989652031 -6.1491258187580469
    7.1449474317288191 -5.9809843906677891 7.1078282257360295
    -5.9336345731446185 7.0841865806481596 -5.8842746515982762
    7.0710254736072429 -5.8723899603865979 7.206455190632032
    -6.0097258462696423 7.3304104421732674 -6.0833106451754135
    6.9193629452292837 -5.6955951996404997 7.0600102268065053
    -5.8049513277253046 7.2424652473108946 -5.9491804826396519
    7.1512669835400287 -5.8387575862099022 6.993718392480881
    -5.6579186389587912 6.9337754354224233 -5.5866896516868598
    7.039836132861633 -5.6777936294010489 6.9167912186695668
    -5.5610279519278123 6.8098819891268176 -5.4581936940593874
    6.9797494262135524 -5.6165630749549109 6.7065822145757288
    -5.3726754746841454 6.7804788587719829 -5.3876853144536296
    6.8009653040881419 -5.3842928423638723 6.8807402413479428
    -5.4144970642132497 6.8533141503849127 -5.3829203645390855
    6.731072305914628 -5.2567409660713134 6.6055771870105922
    -5.1201783163139201 6.5105897767000132 -5.0213866153419442
    6.5338497374955313 -4.992997721584544 6.3489036851549931
    -4.8446947337554098 6.3294997515928788 -4.8188691754482251
    6.4260061890767419 -4.8935455135372727 6.2377194681333927
    -4.7018734127061883 6.1197464468073868 -4.5893933007092276
    6.0215070564707736 -4.4904610775797682 5.9129229229452509
    -4.360605345267607 5.7412842503766344 -4.2031243428339033
    5.5693131347124529 -4.0121567502347917 5.6043336170166445
    -3.9982070583299607 5.4891629827105479 -3.9147359145366636
    5.4629453358835445 -3.8624195631378488 5.3176305770525802
    -3.7612161883972357 5.1362136595413288 -3.6039757933762555
    5.1237964633484276 -3.5996565463812602 5.0635953155092412
    -3.5294781212064117 5.0118688410965744 -3.4747548743750798
    4.9812015272235772 -3.4295987362374518 5.0782155331681595
    -3.4666857244330105 5.0350690703474248 -3.4297021257653793
    3.7869418855347976 -2.6109017704314397 3.8713661794024463
    -2.656934953478935 3.9849262557821103 -2.6609694835946591
    4.0842338406358847 -2.7412346462327681 3.9518588255782556
    -2.6242865380798497 4.0485095857811233 -2.7231970532227598
    4.1058024732067944 -2.7306703234652461 4.2635104827376855
    -2.799566022697547 4.0479989432767969 -2.6356166395108267
    4.0791251933742396 -2.6520608470553571 4.1698258546178444
    -2.7873470463455097 4.2687250604149627 -2.8713475344705288
    4.0730681804356417 -2.7874761289013064 4.0978538036937016
    -2.7272190298994041 4.1032470191639128 -2.7902896844485743
    4.2058733659697207 -2.9026771695130518 4.1435475749091362
    -2.7876125481898808 4.3360266321689744 -2.9745464920755023
    4.3598279290351174 -3.0023526074911158 4.3317578214956969
    -3.0112324317074597 4.1953197392246553 -2.8790711786057765
    4.3266213192994973 -2.9498180047361178 4.4664907885838669
    -3.0936030705807798 4.5404541068724935 -3.1407685508474241
    4.5746606544684081 -3.1203267056277104 4.5297998886421249
    -3.0719875249636766 4.4753240473162252 -2.9163882666024605
    4.2773828185014464 -2.8949872374912284 4.3592338622092921
    -3.0222220689233894 4.3959295131280376 -3.0762575564276506
    4.4925898239838409 -3.0654220907413166 4.4416080373137747
    -3.008971285876207 4.5020214630499478 -3.0556351153549595
    4.4037526091777162 -3.0070062540051574 4.2908901133536093
    -2.8788358585653269 4.0098755087972204 -2.6067907775613128
    3.963527615782545 -2.4839548902015025 3.8084741994374527
    -2.4908865481525728 3.7665709984368743 -2.444014814182093
    3.4821455295638439 -2.1722454700722942</input_scale>
  <output_scale>
    0.52631578947368418 0.49999999999999994 0.52631578947368418
    0.49999999999999994</output_scale>
  <inv_output_scale>
    1.8999999999999999 -0.94999999999999996 1.8999999999999999
    -0.94999999999999996</inv_output_scale>
  <weights>
    <_>
      -0.055051000829502178 0.071604307318581223 -0.077430225404042208
      0.055154926399118863 0.025084992192002095 -0.049498707045672108
      -0.019648623469634082 0.081541051565820533 -0.010623128492296328
      0.018087598040446826 0.012963476205073134 -0.009710577737639621
      0.0063238191812328278 -0.021569689510964548 -0.01784895140632238
      -0.033185060643900914 0.027552973099430691 0.036072314007826872
      -0.0057975902162943644 0.054761491420499443 -0.02318964187942564
      0.027124106975557769 -0.04944802378954883 0.027441360933444212
      -0.003292570083827339 -0.017588586972160401 -0.011047459113855521
      0.036850809506554921 -0.0094992322472088244 0.0015914824972291641
      0.00270461433901303 -0.000959178335004909 0.0098431604167790003
      -0.014689566116197084 -0.0038499496277584503 -0.013605949488169228
      0.02835130737832408 0.0070890358500198692 -0.0065194819649434148
      0.035841318255001205 -0.030161666245239849 0.043591445406759965
      -0.060606027398161469 0.040514962796679044 0.018869484470504624
      -0.031881252495031799 -0.017780957821636332 0.034863089681649556
      -0.013062048136806444 0.012035948772543255 0.013237409353813265
      0.013563770651133874 0.0075831683979126312 -0.0076452951038827478
      -0.002280679470429313 -0.022014711718680319 0.012144620691798731
      0.022919843181723455 -0.0039032982602837168 0.023627672664007386
      -0.0057156395163843491 -0.00088710742490177689
      -0.0064940183946185798 -0.010783284826649841 -0.016766895523246693
      -0.00040114870995608566 0.01320030245819577 0.0043473174181517613
      0.0072821402695678189 -0.015593131642911318 -0.010698544699241159
      0.014540209305856387 -0.0069677116021511117 -0.0059882694709471902
      -0.0091979696898522884 0.015775246374388392 -0.0059342466436276657
      -0.007981468194334906 -0.0079522678012370254 -0.013298785215255201
      -0.0085555330841869948 -0.0028981149512229817
      -0.0025977037297618814 -0.0051202015078087738
      0.0080852972207225617 0.0013089654563498887 0.0059419902457803278
      0.010697762557751705 -0.00010433405881181373 0.0081907106587308636
      0.0033212403064616152 0.013446614098233268 0.010016453600248706
      -0.0077045013450545031 0.0068226764318726459
      -0.0053491375344521738 0.0014594388946473631 -0.009470851939972531
      0.005586635294023699 0.0027834794374495446 0.0014938747530681465
      -0.0051492428901835259 0.011438289502103393 -0.018357857228526526
      -0.0012544928083567971 0.01541001961447706 0.0076971469713659028
      -0.0029748620668287986 -0.00027981147534095571
      0.0060993917306211331 0.0076949914382383362 -0.0054773788718658154
      0.0096209750094465533 -0.00060760108622073274
      -0.0034636986016950071 0.015213533694233908 0.0041857945311116812
      -0.0052815046402489392 -0.0028771617187785875
      -0.012928694475638878 0.02222823766970888 -0.0088523056119234472
      0.012289945580046037 -0.019432930986548642 0.0043588041919138416
      0.014125803222373405 0.01221629702921732 -0.014382971904632332
      -0.0032768961850393316 0.00028523421111726764
      0.0038706763913163712 0.0039811805148462281 -0.014187721375562845
      -0.0022917977730536596 0.01533817463283298 0.01103827238944915
      -0.011192273879861523 0.0031744116397146387 -0.011838713199735481
      -0.012631160446318568 0.0058432072184822085 -0.015667303909893456
      0.017043177878729211 -0.0086439113251430087
      -0.00016744378209633588 0.0011653267522142409
      -0.0050443489803542211 -0.014418865339031528
      -0.0085733210653136105 0.0030674533704286044 0.0058007386140581426
      -0.0067690916395118875 0.0043950204993654105 0.006480584651474228
      -0.0060575108966223591 0.010831964048518215 -0.01889968579796001
      -0.0040543046929285382 -0.0041351176151719514
      -0.012695236441710708 -0.0071423573430547697 -0.002271525734524266
      -0.0094230898249337142 -0.010579309450020781
      -0.0057878537513198283 -0.0050564823528300743
      0.0028143054689288047 -0.0025212726347434615
      -0.0038323581507801476 0.0052833564511330037
      -0.0092443969901404958 0.0048932870806536622 0.0089641309518616111
      -0.011257641088344981 -0.00037933998216340331
      -0.0047538114744529684 -0.0043004232786590605
      -0.008739139361229966 -0.0089728136752125955 0.0049956566428298712
      0.0036903772074641725 0.0085670818984029378 -0.022293743628329771
      0.0030745518089857942 -0.010506355576382629 -0.0075756424753340738
      -0.0047771428723670638 0.0115538910283393 0.0052038806466265294
      0.0030807658832351201 0.0054640756026522134 -0.0030044398350074792
      0.0014930589015728158 -0.010555172098018884 -0.0042178647445834626
      -0.014907890086297931 0.0086586519124442901 0.0088372476824357931
      0.0005265399408931167 -0.0018411960796386477 -0.014917327608590677
      0.042663371811427084 -0.046109818276591226 0.025510615030945882
      0.020817007681369234 -0.030060338183308558 -0.019863196858146765
      0.040853234706753054 -0.0026927300493961126 0.0094932132694934904
      0.020473938716462588 -0.0071275501671911263 0.0058857832960712035
      -0.0032275497516885692 -0.0037312499881271225
      -0.028331324760030377 0.022318892531717646 0.016265295913263617
      0.010565342385916381 0.035468505111732523 -0.00084552643188065481
      0.0043721009207548216 -0.0019627869946005727 -0.004288905705154878
      0.0095609127791871917 0.0061981102355678549 0.0077733491729556261
      -0.0034880082133129714 0.0065617535826066834
      -0.0096127889438003405 -0.0093548791652747574
      -0.0062311221618798918 0.0070628840015956977
      -0.0083168000939042933 -0.0021266217929283488
      0.0050396706209972584 0.011095696348277314 0.011155978167697086
      0.0010329489417069994 -0.0074898236135496473 0.0017645666632373875
      -0.02633542131096292 0.021360614673366168 -0.016018741160069086
      -0.014733851796608027 0.017677043840329209 0.010285472891441435
      -0.013922959628901868 0.00039013097893439159 -0.014370419211830883
      0.0071472927890768659 0.013205907664440339 0.00087183775514271949
      -0.0035753665362399266 0.0071297899191772899
      0.00072425942115518472 -0.012690739521957685 -0.014761475430072403
      -0.011351251281381002 -0.0035092941269946158
      -0.0028145425229492136 -0.010870511677266857 0.0062287313025431289
      -0.00075997277496279742 -0.0006198292279312364
      -0.0048487907883547673 0.0022768601115611344 -0.015379571698234337
      -0.011632839751481929 -0.001817555547887874 -0.010795097465629391
      -0.0076903585604468153 0.0071098233850969061 0.0051799284537690669
      -0.0048726132303515361 0.0047223725000805445
      -0.0021277082320412858 -0.0032691226320579118
      -0.0057150814047735258 0.0013951800302302829 0.0028194251386952649
      -0.0035619878714443702 0.022818626677145813 -0.014104809490427061
      0.00075932887041440145 0.00048414104939194778
      0.0054786485049341258 -0.0012021442268018274
      -0.0097238635416325176 0.011553300426557483 -0.0075800037487214408
      0.0093140223752763724 -0.010983265411349736 -0.0010294126523837657
      0.0024906828949174896 0.012759543327367008 -0.014479443254023776
      -0.014407697104429674 -0.0069111615341114476
      -0.0021977746382841681 -0.0079583604110937609
      -0.002602454355595812 0.0042746685524488633 0.012512376594713452
      -0.0093654414394663387 -0.0065637696409724397
      0.0097796142033695892 0.011414337945015174 0.0046479541416544297
      0.012404571494161735 -0.00111590411822428 0.002084559586884398
      -0.00059671171898379241 0.0070588414398991628
      -0.00016699972944513261 -0.0096098612735405053
      -0.0076358461669959266 -0.0091875350024510204
      0.0023171204645215304 0.011414744699920057 -0.0067746696522450736
      -0.010497724274293003 0.0036577816349119907 -0.0077918343783044226
      0.0037987266852111535 0.0062740118360957737 0.0010255804348669603
      -0.0068090868012841413 -0.010956465308767536 0.0086885103453768486
      0.005150502086355843 -0.0052500758707789905 -0.0060279578315940172
      -0.011204493514460383 -0.0027874078280105065 0.0052541709020732744
      0.0012241340837283964 -0.0012149194384741312
      -0.0073919173614014153 0.0058927746894350298
      -0.00042814634701633891 0.00723375154402792 -0.016296901018266571
      -0.0074674407313597615 0.0053225847658424121 -0.009010051592648366
      0.0036673918505537736 0.0030431165797589837 -0.002280064491138266
      -0.0098478718433365042 0.009601808858761782 0.0016983775625615879
      -0.005507360614066063 -0.0075375404268378165
      0.00066113233219091067 0.010224721823839003 -0.0037259149901612255
      0.004216557055845907 -0.00850446017086391 0.0029959091158599676
      0.013697791671195404 -0.016175703902967759 0.027241957771865163
      -0.036477699136158469 -0.00049532027639193695 0.022200545987772394
      0.017656711453810248 -0.03258031259455179 0.008897603767447488
      -0.010527342101804072 -0.0076238773005945313 0.004743033587606982
      -0.01736140861093018 0.015571261680956851 -0.0040153111542991218
      0.0078911677054910988 -0.020129242467231769 -0.010971781997293803
      0.010191676791311111 -0.022377449492358516 0.020192893166192438
      -0.021065194325128548 0.043653228645875834 -0.030942501478152688
      0.0016427734957114499 0.03056149547857951 0.0051310086917403103
      -0.043614893880261907 -0.0040042199544559447
      -0.0082833953198548881 -0.017872158041117636
      -0.0068001291752662271 0.00054072044821132728
      -0.0006362504139936808 0.01797048568097627 0.0094162004772563035
      -0.008351341452318908 -0.010881708235059431 -0.0044632553090614389
      -0.04092934797955354 0.012220785349507868 -0.0090912577058875326
      0.017399296850195718 -0.018998561147220969 -0.01031302076082022
      -0.0026171379804448996 0.0063006386874811908 -0.015233525323877841
      -0.002868050279265517 0.0058693415746580331 -0.0053832401773652094
      0.0056519236379233579 0.0025510616647252456 0.0060283676229533935
      0.0076177376739871858 -0.00011381427800827988
      -0.0035459088056119556 0.0068139439161726883
      0.00097296772488066974 -0.014034272627505485 0.0027809636975977946
      -0.012928208880816264 0.016868566171052663 -0.023071548821215968
      -0.0098279767326602957 0.017617591725619289 0.010922201868839731
      -0.013698266530714329 -0.0041995719355215656 0.0024999432355569976
      0.0001218708139758236 -0.002443451456324114 -0.0043489540710381601
      -0.0030381354847807086 0.009908226945569653 0.019153742612851972
      -0.00047565893407592046 -0.0022162026853005481
      0.0050904055302792746 -0.02369840047309096 0.0031206096683095547
      -0.0059587730255711395 0.0043242165211630343
      -0.0027920061608895548 -0.0073280444004148 0.0020000695314247715
      0.0078502780416938294 -0.0048347222120139659 0.0079018138126896887
      0.0025510291280863248 -0.0074476264448728128
      -0.0046514333601808781 -0.0088960098813381152
      0.0091528511159834711 -0.0035817108762266968
      0.00072855388552830287 0.0078241310679338372
      -0.0097959081934652168 0.011276307396056381 5.9799140648970553e-05
      -0.027992112342415956 0.024692761035801251 -0.036833386111213125
      0.037453428410927123 0.016568382123862559 -0.024647458594000339
      -0.01888480327297402 0.030587807302910674 -0.0034608990412742743
      -0.004145717173083068 0.005691946841638925 -0.011409628059416772
      0.0065044323170003531 -0.018036843646192936
      -0.00038315707719323836 -0.011932873485552874
      0.0051041511117472776 0.00069677121587214666
      -0.0076042018638646678 0.01747924518029392 -0.010158880948917095
      0.037112496963164425 -0.025253141594700247 0.018310501465527134
      0.0033316016530244717 -0.010480107336370417 -0.012350924187234668
      0.040702511599697899 0.006413209592326297 0.0062034558744405105
      0.012294399361335667 0.001796911731634982 -0.00071745959686759034
      -0.0074876240524824021 0.0071174066719000822 -0.020306999633381565
      0.0063638003408931368 0.0034920906498420445 -0.0093463679424697129
      0.01247033180397324 -0.014549043535423445 -0.0055068123682888584
      -0.020420998978031291 0.015604762438945353 -0.0097976991069020081
      -0.00051551196099899887 -0.01105469538438107 0.011642756710816484
      -0.006781767708133447 0.002757195548871768 0.0056397952792257818
      0.0034827547589429898 0.0059148806266548963 -0.0081999765354169845
      0.007591528192362914 -0.010160240483459178 0.0058986717773058103
      0.011343084846311708 -0.0037422721688772686 -0.0014159886521739006
      -0.032809389405646379 0.039406556384018313 -0.039040175252724234
      0.037648086592714729 0.0068066108286349934 -0.017263058635212925
      -0.018462170311893636 0.042875725000020626 -0.013834006353966971
      0.0096800884799935205 0.018814378668272427 -0.013129550769660714
      0.00082897305560222648 -0.0073107134847917804 0.001041121303645612
      -0.018307204957111196 0.0081036275241897059 0.010826669212750483
      -0.0042133379036453835 0.030257392590757281 0.0034910198219720262
      -0.029093708394055326 0.0093472307089791425 -0.016064869516731261
      -0.011533278708977426 0.0086241840752225105 0.0043167044746452339
      -0.021558685271284624 -0.0080206419733760397 -0.011702462172997035
      -0.017023987170347286 -0.0043487134548715707
      -0.0088838985381935083 -0.0015098376667228232
      -0.0078368595638572316 0.004023651173207664 -0.014376696360392746
      -0.011429367516012229 0.0076020148780575622 -0.024831107278437396
      0.044898407599554685 -0.037119206418612626 0.047048250319412198
      -0.044184019076542791 -0.016297152133215045 0.025640773893509033
      0.025291596499012227 -0.043046239073687639 0.010997755168714258
      -0.00026021491834621389 -0.022175974649974659
      -0.0075142979633414002 -0.0029658619378142479
      0.0019123173538728255 0.012934660707806099 0.023415228598914688
      -0.016938867458415746 -0.024113022851004938 -0.0030987935390344112
      -0.053924105683809516 0.036096239111206768 -0.055114316189849098
      0.072499627689073809 -0.058854557202124319 -0.015820778719630536
      0.037880853035675288 0.015385347995041317 -0.058172447661653109
      0.017783299778426995 -0.0038337090206373549 -0.0072701912320655964
      0.0081159480751761166 -0.011685633824985261 0.02145883537940781
      0.0071631688247451447 0.037716632903503231 -0.025954609408995757
      -0.033378922368767598 -0.0013721570176736656 -0.066571253469527109
      -0.0031000144822563862 -0.0060447545570806128 0.015523232096992043
      -0.019352736725263431 -0.012636296431763583 0.0050515441292980261
      -0.0021324959979709501 -0.0014459023898524693
      0.0087366384282590182 -0.0050130195403932636
      -0.0040222397228843231 0.0087382214358410551
      -0.0072343294822854072 -0.0065590264028789168
      0.0025150889603373777 0.01000561433122448 -0.0044615218056290448
      -0.013241519924144643 0.0057406262800340797 -0.012488441356422958
      0.013814332681841797 -0.022507457650684726 0.016549110185209218
      -0.01454228906749892 0.0036407750069878436 0.013510889161689099
      -0.0022113053270162394 0.0027256959782247367
      -0.0042422305891995802 0.00064735093575782419
      -0.00095442052845889956 -0.011191019732220349
      -0.0027432662151400775 0.010476030972651772 0.010111800816876586
      -0.0047610140803776195 -0.015920334489924075 0.004097894329175197
      -0.0084470660078791761 -0.0093825524272581409
      0.0086140719740094851 -0.024711812764121252 0.023710489305272749
      -0.0046765755981260492 0.0034429973505377904 0.0055017725489517506
      -0.0028248284645452587 -0.020396384543800734 0.0097005201208229912
      -0.0068907591093579305 0.0072007633620809943
      -0.0020853812157991692 -0.0064528326254760264
      0.00081620978459466564 0.0098325867098052588 0.0061651034487093153
      -0.0059663803436444465 -0.016794051349933989
      -0.00066482682177557042 -0.013372653355330791
      -0.0022248686112357171 0.024760078715534671 -0.0087025713117239445
      0.0055320648911870336 0.012403572559987613 -0.011330281510479214
      0.0041513578332001951 0.0015132789268209881 0.010711278148236171
      -0.0037229475717188779 -0.0019270165830546659
      0.0021671249978870155 0.011178733067689753 0.0081351343580914285
      -0.0032592734724621567 0.001648978441088434 0.01281598062706054
      0.00020655271601649581 -0.00865236344045427 -0.0021944317330216878
      -0.0074690416998783246 0.023526341244304399 -0.030433628211134763
      0.018927081863050199 0.012675695336184947 -0.013990749660532922
      0.0030207021047416014 0.010464796172739594 -0.0071906465598601185
      0.0081187716607589982 0.0042886989072094964
      -0.00041593259456329399 -0.001022198224361633
      -0.0063490943147471932 0.0066161081220664428 -0.011662071312052082
      0.0014153083798758744 -0.00034423024673435208 -0.00404325805772542
      0.0093863891662284565 -0.011204383686725232 0.0080493092381109365
      -0.019518052445762438 0.0072786064103027249 -0.0004930240955823412
      -0.016606347193539837 -0.0037159710264522824 0.01591407251755373
      -0.0049002783425541605 0.0041772309963548733
      -0.0036066058957067585 0.012337716724321018 -0.0080318282562367553
      -0.0052156072227054909 -0.011091425118982593 -0.005520982042129325
      -0.001309263723293632 0.014362831237477999 0.0053939724051567158
      0.0048774768237101716 0.010885175095060021 -0.011237689129529917
      0.017319781626114236 -0.020096743507938986 -0.01122090791873707
      0.0052770774211298018 0.0032736244453555941 -0.029193076038342172
      -0.0078935994324826706 0.0048424808808220062
      0.00047857300783878468 0.0019062495466712463 0.0023377579633550218
      0.011382015746719541 0.015288604369380026 0.019168595484172789
      0.00028672038400166404 -0.0012001787169050862
      -0.0089810376716580338 -0.014023120602116849
      -0.0031769017778693347 0.025778558502022174 -0.029750785267136346
      0.010475886436825151 0.018563534293015306 -0.013947706144884791
      0.0019236162755897721 0.025776638278373336 -0.0039560258410726726
      -0.0029260468686193746 0.01559515365734181 0.010741357053857953
      0.011525515068745039 0.0093353343303326612 -0.012478116005961265
      -0.0024795976863237644 -0.0019151281010928345
      -0.00084240901026398293 -0.0023458973452539027
      0.0090083454837997685 -0.023491746954523308 0.049257165207251576
      -0.045233980101420122 0.030024737076013327 0.020832533696179892
      -0.026818101465393981 -0.024169447372068036 0.038519935296326448
      0.0031971971645577014 0.011592683900380339 -0.0019076107326498155
      0.006886438248163841 0.0012514677128587571 -0.018560472374236449
      -0.0016150203077886221 -0.01814972510906274 0.0056063582560096827
      0.018116052054473423 0.00032351570319880948 0.041116027950844444
      0.001811091968052816 0.016805925399568565 -0.014623498678129449
      0.018625196515404591 0.0085190046362847802 0.0014366782556756363
      0.0079501984162721005 0.0017117820441640394 -0.011141630717079283
      0.010997299115828392 -0.0067738350959978769 -0.0030755227534286977
      -0.0027930864847478965 0.0061143242349398774 0.0070831960351005491
      -0.0051128477234400173 -0.006658621462087848 0.0064362079920394361
      -0.0021634626031235529 -0.00032949194540754691
      0.010563789067323656 -0.033281622833969696 0.024675878056069852
      -0.025846813510578583 -0.0077730674072953101 0.014152107406464448
      0.013467344028032971 -0.017084272108947786 0.0055539183029732226
      -0.018327981841091683 0.0018131423311241017 -0.0081626294490207609
      -0.013807855562314675 0.0070973887316382704 0.0053510983613205649
      0.030099681636476628 -0.0088223340183552525 -0.025665170570233962
      -0.011583283748933526 -0.032837438176982821 -0.0044522165523456373
      0.0039144159308128635 -0.004820787704723834 0.0080748571934788245
      0.0091302244206737 0.00021961021742963362 -0.0039565814850816648
      -0.0063775309824366105 -0.0060817506654002552 0.002873414369571919
      0.0030134401138578698 0.0060144163055241336
      -0.00054852949764319474 -0.006765168978120995
      0.0069503281275100429 -0.0066342865438109109 -0.011332735789363264
      -0.0072242970747786366 -0.011086766365203395
      -0.0053916909497813206 0.012880754173371596 -0.0095292173697955323
      0.015084002779955136 -0.01374183208962359 0.0048530086389786467
      0.0096404249358540434 0.016877498512090333 -0.013484821800493213
      -0.0021532179551269691 -0.0003018883162092819
      -0.0051898757774148929 -0.00066053872890542062
      -0.0077001809031873028 0.0037248607393542171
      -0.00016489364794826277 -0.0041205269846622383
      -0.0078730854258671022 -0.012979976149590719 -0.010646418062497066
      -0.016176524267515733 0.0028416167369804484 0.0097502102831836107
      -0.023155773601529032 -0.0031202972176738253 -0.010023043037693557
      0.006474695526113244 -0.0066032574545681249 0.011655888608029095
      -0.010760812910324092 -0.0031590616751600623
      -0.00048647720815775077 -0.004962188733492065
      0.0060672489544483467 0.0038389014380980917 0.012008006750829317
      -0.0057123603396555213 0.013840055012289902 0.0039977747597481541
      0.011854496096439352 -0.0048400056249032347 -0.012912406402294551
      -0.0033276966571312316 -0.01285463363009498 0.0033717204142709599
      -0.0068980277907650352 -0.0085274328987132338
      0.0072768906275845618 -0.0048517669496705232 0.011566710840799958
      0.0067369401142149763 0.0025193440579844473 0.0088057328846374693
      -0.0086449861888416475 -0.015359519325531659 0.013711208337968055
      0.0089535486429833128 0.012242239895249815 -0.009400644460201708
      0.0096131318996486876 0.0024190705152970235 0.0041207672244131183
      0.0079197174950752826 -0.014826685388267636 0.015380882033596929
      0.0015226601105329861 -0.0013383830142484525 0.004926511318276797
      0.014398852850480117 0.010066300435270336 0.0043853858977285429
      -0.0086648738585207268 -0.0019765701382380104
      0.0065684309848024975 0.0017165403524970026 0.007603450846025264
      -0.010374930287130725 -0.0027459959735420857 0.0035739418944390811
      0.011969369189954372 0.010350373711968562 0.02874737993569516
      -0.049353566296399615 0.051884325035250714 -0.041510815162978255
      -0.0086282346727543455 0.031936476919009922 0.012267213929690213
      -0.0461875429135441 -0.0019081443388282065 -0.01943916384961725
      -0.0097131232016691733 -0.0012227392983719556
      -0.012424820791818555 1.2891884714058175e-05 0.014966394603912339
      0.020594097526502066 -0.00951518344187589 -0.022426000960998185
      -0.0091645431297581979 -0.038708520553425461 -0.017961998838028338
      0.013276695194752833 -0.027300371098446085 0.003711603302293442
      -0.002245757294740006 -0.0080938944420237847
      -0.0061402243769940711 0.016971990990889321 -0.0034476048784411162
      0.011106265467796781 -0.0006878358917809074 0.005534354925703369
      -0.0030084376040458846 -0.0028810018135986331
      0.0092502781237982501 -0.0042901677655399137 0.0023897274883432013
      0.014054169561170986 0.0081071378002587468 0.0056681778170738391
      -0.0039949438986930392 0.013078464680892016 -0.017050200560476157
      0.015694523515642461 -0.0031617790247814924 -0.014861621324038208
      0.0078730863071657942 0.025988253958979021 -0.0071903071223337976
      -0.0059265649751929165 0.00081127717109709667
      -0.009332112244998074 -0.0082025023444423535 0.0047679372650820742
      -0.013650904290129971 -0.0081234247537809029 0.010788325575810416
      0.012341654929643224 -0.0017629954775150493 0.014061894445843973
      -0.023059596580678229 0.032130796386806763 -0.043349451406527052
      0.051799407506827856 0.019261615064023452 -0.034807898642317356
      -0.018439824939283232 0.055883523927158743 -0.0073025419660218346
      0.01794447037292117 0.015105717102263602 0.0067703446183592876
      -0.00012585868228704258 -0.019780948755438371
      -0.011272407103644742 -0.014778495808353031 0.022960897641290012
      0.012470787546261301 -0.0031974238358396709 0.030278764277541739
      -0.00067529725766139412 -0.0040250796083095546
      0.0010182569681988006 0.0042169875221686167 -0.010859154707292016
      0.0094437325516957132 0.011125875215149256 -0.014350576502291549
      0.012566115671262954 -0.0072988139984153646 -0.0097731357970487973
      0.00015944405060731192 -0.010467997568851558 0.0049378500336866608
      -0.0054521006803895941 -0.0031671650758796984
      -0.012622277913972428 0.0086063449347980586 0.0010112376924736794
      0.0018079633596453548 0.014135559316986512 -0.00027566863301189932
      0.020953969155584479 -0.0047083641393324991 3.5261938042563324e-05
      0.013307665131569984 0.0068598570906596157 -0.022724898417912396
      0.010720608568755535 -0.0033447024216878471
      -0.00016991167198953137 -0.0070149262983917725
      0.0072190639178257594 0.0010927106440433399 0.012054931041654678
      0.0078133613268891004 -0.012665748459489427 -0.0088051026162147897
      0.0026213469241573814 -0.0096554292722177294 -0.040035726282580751
      0.052546875616504257 -0.061273848524874587 0.046243985635357719
      0.02154536119876118 -0.040943034396227151 -0.020027519502725733
      0.052868340586584801 -0.0066301665470248992 0.019100997299946475
      0.016291892962101515 -0.0152171318735094 0.019385706239734353
      -0.0096239637254163964 -0.0014585216104052328
      -0.034355144053756143 0.022113296717753365 0.023393075098195073
      0.010498209610757449 0.044384402945134016 0.0012922890708228372
      -0.0067386066571092666 -0.0087885155595404923 0.013483154923477613
      0.007164956358036041 -0.0048860163684446732 -0.0049983509010747959
      0.003838678239762968 -0.0050060524245339987
      -4.5215159167098609e-05 0.009635605312593604
      -0.0045649694454874571 0.010580582967673292 -0.011953492011988495
      0.011406175962737686 -0.0088266420587868356 0.0078011831400546178
      -0.0045973069347305271 0.00082954479624491493
      -0.0074022826390369332 0.0071607006083445205 -0.023479940065108961
      0.031306037525881569 -0.036795097456457392 9.7463210789070916e-05
      0.0090034263058732383 0.0062242309223615238 -0.035717323568214963
      -0.00024500132198267301 -0.011993218401156415
      -0.0094377268459618201 0.0060288657698735933
      -0.0044928143642301585 0.0038809983509286048
      -0.0068479739577057908 0.013256757103686194 -0.0025953988339293224
      -0.0026650567649877479 -0.0066670422635159649
      -0.030322674684789115 0.00089218612014695911 -0.016209129837857557
      0.0064620490084400057 -0.0050541832568095496 -0.012459248967410496
      0.0059614319922885279 -0.0057640374773053676
      -0.0032845230614004877 0.0077487907345610042 0.0053263041696701673
      0.002648935556638421 0.0088989778194353501 -0.0054619707222740444
      0.0042724704925977807 -0.0042958845625909866 0.0035758789273897971
      -0.0023066616122799375 0.00090354930358975166
      -0.010928364589325258 -0.0049618811159508301 0.015095804982711104
      -0.037531723588869463 0.021989802439226946 -0.01815669403027393
      -0.014148495981028861 0.023517628193320549 0.0055902610022639868
      -0.023492105171631056 0.0054940576854750085 0.0052424972020334226
      -0.013667779894335345 0.00065718684977235777
      -0.0054998190955755123 -0.0041158059386011327
      0.0060129474722914319 0.020157824617452431 -0.015289761498359044
      -0.0098508054595416901 0.0085990882275146438 -0.026684449361452263
      0.0094328856939846929 -0.015231054267654868 0.02077312214944212
      -0.030770776517813639 -0.0037174002909559556 0.026656843912095739
      0.0073916286077036104 -0.033762810464257817 -0.0024110728588814705
      -0.0099902690626281088 -0.012357997024520759 0.013530397115982355
      -0.011995211797860429 0.0070818319310489717 0.018462423031003632
      0.018662920424881067 -0.017212904963234028 -0.0022659344631194957
      0.0080651798873606784 -0.010300563003793515 -0.01411882448339267
      0.040819955540073366 -0.033280402366711287 0.031405460943373709
      0.0072164176868902644 -0.018052487717098404
      -0.00075175475308079758 0.039162488943556277 -0.010699959895744982
      0.014775221878314159 0.018253708264476306 0.0048696704951096568
      0.010029989170689816 -0.012981699680344469 -0.0038248681895611696
      -0.017053021393466705 0.011932324746291197 0.0051677696270053756
      0.0096006282553148525 0.022858858369487849 -0.034130814569974417
      0.058770240421667806 -0.06135413119759283 0.047143428907669212
      0.017375472170880632 -0.035370548480834353 -0.025036063079170414
      0.066096381492805972 0.0040119305287876633 0.00039513866678278346
      0.0086644108187144565 -0.0056421999303526557 0.0022797154384776373
      -0.016329769012013412 -0.012350467930152218 -0.037188385345706773
      0.013537546524534023 0.025029402876614461 0.011336358015224632
      0.05220094391325459 -0.041013077544562307 0.078191304941322912
      -0.073307203334232005 0.056315360658880306 0.031956508708640682
      -0.052571737782481406 -0.022833562246242684 0.060222505751053708
      -0.020126791084487998 0.0017349945352518074 0.012721514001675791
      0.0039443989980986255 0.017196576259397342 -0.016648339245928085
      -0.01284458630763287 -0.033566939313493291 0.021306489217858951
      0.040950936351415806 0.0053930974050282942 0.052469436659743351
      -0.0063693157473641519 -0.0092686734470097225
      -0.010020369321189332 -0.00058243561235677842
      -0.0020317457188274552 -0.0026520864693462269 0.012546843744161554
      0.011089243839326066 0.0032627215355150968 0.0013907888012136649
      0.0044748227446364877 -0.0085642318640449192
      -0.0078943724150866163 -0.0084645778929420233
      0.00018751307012790692 0.0007396470177773465 0.011160688385335635
      -0.0003539298171625586 -0.011045496638778624
      -0.0062572203556364248 0.036417917858518757 -0.052043223616968261
      0.062112698541404145 -0.059724422906585341 -0.015575254861357473
      0.04447247275501643 0.034393834940618567 -0.075366903951829003
      0.016081142235009959 -0.0048508272303669307 -0.016855965034566163
      0.0056465704894987073 -0.0088763087993827556 0.0047343087961347792
      0.023523317100342334 0.027404375918581546 -0.015451850325141252
      -0.023392905469761131 -0.013112071987926811 -0.060284121775629626
      0.0059210617162008877 -0.0013490243203405426 0.00615539146140099
      -0.0097530850828854918 0.0040058415269950583 0.0015732255176725096
      -0.0032620621986207991 0.0030356799813027733 0.0015670539105535426
      -0.013140765456060036 -0.0027516827461913983 0.0080941398406029139
      -0.0042401279793869784 0.010074356771549966 0.00089915530927712226
      0.011646498771299703 -0.0041555007308936133 0.0081360614313354951
      -0.012256631071839283 -0.017258309976600977 0.0066502243841810513
      -0.0049097755945257081 0.029213070437411441 -0.02198113699449936
      -0.004084610271392443 0.0036258565966582296 -0.0036184927071647834
      -0.021531909805134569 -0.0065469218454806289 0.0010633684023970652
      -0.015301016251552103 -0.0080170871582703473 -0.011672785451680981
      -0.003977679048329707 0.0093513557062481888 -0.0027254312041005585
      -0.0065475175733857825 -0.014274380837259815 -0.012748118805055178
      -0.020520059746565723 -0.009949780635906659 0.00029226625540559631
      -0.0047305620278639869 0.00076029665048755525
      -0.0055800150332440826 0.0061732880854767922 0.0076359088388367191
      -0.0061119050087035812 -0.0049715902697671545
      -0.0061559669590163183 -0.0073217229521514307
      -0.0054017897480662068 0.010930451866574133 -0.004101806552201155
      -0.0012181955166148603 -0.014222656611599377
      -0.0067894224606083403 0.013578155787829246 0.0011262682226209604
      0.0008796048003280872 -0.012623249574642744 0.019348710364889797
      -0.037563889789776254 0.028938117798684718 0.018103543286867353
      -0.031384523133586653 -0.011125717746460356 0.03808984227186174
      -0.011842370445735082 0.0082885050910424581 0.016146974190172421
      0.0018490329984484422 -0.0020672220424031501
      -0.0049210541435751164 -0.00094337186170044053
      -0.023304331922280801 0.022108254674230526 0.0036283814896634725
      -0.0051762206894349818 0.042324261048964924 -0.0096126384302011696
      0.004595881891019853 0.005748505463278774 0.014445270369926754
      0.0080623754540861386 -0.0087300785022078557
      -0.0059178348704608478 0.012063825712145929 -0.0044877533789977062
      0.011297919007342392 -0.0084479742205559941 0.0018822687333191499
      -0.0081579212116985843 0.007567968445985983
      -0.00094060334518530409 -0.0056732510600962039
      -0.01023222032639968 0.00050716170264320534 0.0057952258355712574
      0.012151753250868114 -0.0049960225884873406 0.011749625922198468
      -0.0014356864238991784 0.01009701130671046 0.00059391739632394546
      -0.0024162578911561768 0.0070657838802767377 0.0021940282254726711
      -0.0039808131554581756 -0.0032019555285283251
      0.0011378377992146134 0.0056670461099894761 0.009009636395483028
      -0.009496324965628666 0.0053314428991168995 0.0036905795178571333
      0.0041141875754637791 -0.0064977372136641757 0.0026031365086372034
      0.0048101573317810131 0.0027384537489754169 -0.03201461406549836
      0.022452785100991017 -0.023515440157180816 -0.017153742923258313
      0.015630012836996204 0.0054592963028106513 -0.017046530878868919
      0.010855687034003306 -0.007007677311777376 -0.0021273522110576977
      0.00089326824691629276 -0.005713766558504977 0.0089489906929214134
      0.0029063153850703454 0.0054631723268247457 0.001822999921497694
      -0.008476643008598574 -0.0041870625750250129
      -0.0053333080704120323 0.017463470491502566 -0.030224251807836097
      0.037013519945456506 -0.036393030366433377 -0.018846029068801638
      0.016191084229695389 0.0075531882909370398 -0.0430450527787338
      0.010763030880710138 -0.0059572093636061059 -0.0080143766437953175
      -0.0070806822433678879 -0.014729988086453157 0.0017757787734480131
      -0.0046598730962964232 0.030963182118406877 -0.021462553701810272
      -0.0083013508522660918 0.0066607122014449701 -0.039329583504066803
      0.026257434796345673 -0.048176049780953162 0.067934564338099551
      -0.055814456176643788 -0.027166382852189017 0.044738303833273589
      0.024343816774243857 -0.051893822557047969 0.00018766607463267739
      0.0022705059221545597 -0.0066687129111722386 0.0041212547119858058
      -0.014230938227602378 0.01642008086055775 0.0044016934430450893
      0.022165123596278032 -0.01780877019926343 -0.031716233727025971
      -0.013543904634407848 -0.049873991539050415 -0.0012489115906057998
      0.0074188478772094875 -0.021729455174821308 0.015759246613247516
      0.009334171923072879 -0.015047453113296009 0.0039589774250161436
      0.015800780461278169 0.0062391919825822506 0.012705224289073034
      -0.0048801203438014404 0.0099265784440937983 0.0010169024200156948
      0.0089536129014433537 -0.0016677057204822288
      -0.0089602436305633339 -0.0045675748415136266 0.013839630772652833
      0.0070195641213813232 0.022927450339240523 -0.032591346115272334
      0.045552509177058449 -0.037356019098729085 0.037419449408771795
      0.01052343654036233 -0.034254875500097634 -0.02599989617505782
      0.044578575007466051 -0.016772849720674242 0.010136278002371126
      0.0055185847851808006 0.0013178063111206435 -0.0022922841268259099
      -0.011117509126363173 -0.014363854085515397 -0.014238633087356014
      0.024323854308592803 0.0054403442276494208 -0.00158757237643521
      0.043053313217867199 -0.029910096366483407 0.024080599937496401
      -0.043846301418656315 0.042618560636572538 0.006065004004589692
      -0.015276716491072229 -0.01442843691659999 0.046255295154081097
      -0.0027836200518620118 0.010756434631244042 0.0059060975312683495
      0.0042752088733371456 -0.0022417661570303272 -0.010784832483554481
      -0.014889863131912876 -0.008349047663387666 0.014342666165347706
      0.0034962707112785288 -0.0093407465305329236 0.033823833712009387
      -0.017771746231540309 0.019720299741210666 -0.020429175384535748
      0.022600547407021106 0.0067485614503841641 -0.011177782978296432
      0.00026682000348655764 0.038272900249189903 0.0030474790004896804
      0.009859239887310094 0.009000089968886911 0.0036790037910960425
      -0.00068570361200895075 -0.0061991906038842753
      -0.011129251722258903 -0.01057997632858431 0.0010288392698126587
      0.01102127660016692 0.0091220831626646157 0.025382542900585517
      0.012626571546059963 -0.0087026499770718295 0.013164278315113976
      -0.019980793572139027 -0.0020535676883470214 0.0079607991830101359
      0.0078035357908208137 -0.016216665792786578 0.0030877990844504054
      -0.0041513284141693908 -0.010037556212243554 0.0088561722760937996
      -0.0094221085165990103 0.0050259052488364538 0.0078666343817294371
      0.0070025147619846686 -0.010522479175128446 -0.010363207170637975
      -0.013123262941791282 0.0016261112607018785 -0.011834692645084615
      0.0094884502622820926 -0.0023623472957330213 0.0058513054548651293
      0.0049994671857208082 0.0016036146543188046 0.0025915018093379911
      0.020879847160396363 -0.010658519637859258 -0.00036128100099428942
      0.0052034220649634999 0.013459147808767998 -0.0073013177386030224
      0.0038395629431146475 -0.0046761950932566604 0.0015553623334609687
      0.011462304928961302 -0.0001600701679694228 -0.007238828680746115
      0.0067996206127838316 0.0033618789314353061 0.014496521472224888
      0.0051477899341950744 0.0028134708319810914 0.0011077412633239468
      -0.0089041380656799188 -0.01053089546409532 0.0035951768011096225
      -0.0026138018542052693 0.0099640044484686861 -0.007149745007213883
      -0.0068079870916329223 -0.0023317563331346856
      -0.014608794440864555 0.010168764668603119 -0.0072063408223177403
      0.0082242833408733805 -0.0089548425285192919 0.0041624253205856049
      -0.0074310515495298497 0.0086132911647362684 -0.019877377503096968
      0.025752069494014106 -0.0081158880367677745 -0.0064025719384118258
      0.017808790575424848 0.0096379248388935856 -0.00915349246880604
      0.0042265709269877104 0.010119025818306057 0.0070063501786318772
      -0.0019099895352289395 0.0059090872251845016 0.0046345062305964361
      0.0010898453690398331 0.013781423771524873 0.0045635264230768401
      0.0039543245805467369 0.0022784909816152849 -0.009009359926198935
      -0.0072577002133606084 -0.016447292578204806 0.01897887334140377
      -0.0055470346153022772 0.0017478565909088473 -0.002643509864439304
      0.013087446339806259 0.00086121155692981983
      -7.2897618404811249e-05 -0.0031547927913460542
      -0.011596891995863693 0.0016037331601694437 -0.011658498879338753
      -0.0012168337286627782 0.012338920285696501 -0.0082646728730848343
      -0.0068695462788014167 0.0059114548579469444 0.0068408858201064503
      -0.015704323642330216 0.00013472176580817002 -0.018218591275859116
      0.0092831152307545246 -0.0061924931842820387 0.0014943632012934768
      0.022128754334970111 0.014053212582818345 -0.01585121194394434
      0.0050143555952191395 -0.01332992735635119 -0.0045657982502914059
      0.0082671303471145707 -0.010858474028448035 0.0076155171815488554
      -0.0027981453941942117 0.0056100063182746678 -0.017926167715808093
      -0.014506758588355951 0.00048742443736876786 -0.011519298563923239
      0.023833449299684797 -0.04907652109061908 0.046597275653089694
      -0.031873683041432767 -0.01697204374688489 0.037078328709862871
      0.026489144365140906 -0.054313155444905163 0.011492638314906043
      -0.010209593367974197 -0.019255603781552978 0.005268305006425676
      -0.0016777239593086168 0.021560192042521409 0.0068733261222925701
      0.010872862860716535 -0.023272641839298999 -0.029021899126810146
      -0.0011187252759609289 -0.037563793860340845 0.046419893104272192
      -0.080231553490077948 0.094122150513698988 -0.063282212033866816
      -0.028251103020376218 0.043585786365396915 0.026957470928622728
      -0.076564441767062175 -0.00086148995799149993
      -0.011328190287823409 -0.027925069198970684 0.0016728918350631212
      -0.0094590854537107416 0.022137147519700424 0.0020062400354572672
      0.041220138275744618 -0.029350178850518667 -0.024961878096875393
      -0.0025790202760829061 -0.058029623966066694 0.011926498288600146
      -0.022648834691689435 0.028332462532855894 -0.033463470020499923
      -0.0074712971038119053 0.01357318565529159 0.0059833707552124984
      -0.042333755602481843 0.015982147582400876 -0.01142092295576873
      -0.0059310927858860878 -0.0067586974368342391
      -0.0078010740440193141 0.0019623178858627342
      -0.00044192655106893813 0.026743671891840265
      -0.00074274209910221744 -0.018444611240598874 0.010765319920750022
      -0.033211554730574099 0.0018182491943785476 -0.012445052499208558
      0.017297527886454174 -0.023151501208294345 -0.010095116515266397
      0.0068632513607751432 0.0098494009059608943 -0.013770402110926011
      -0.0050075649837154389 -0.011994078287551465 0.0075430304591268408
      -0.0062731302876278582 -0.0011646612580116838
      0.0013261305575712468 0.014406765780072547 0.0091994705776893681
      -0.014310013827437601 -0.009299653063809284 -0.011314385836436404
      -0.022975528645907895 0.013670818678725716 -0.0040821629030297693
      0.0029823606766419676 0.00047339662429766739 0.011757160032970445
      -0.0077573773451282552 0.014420034602442941 -0.0096813186685616535
      -0.0034066368771196853 -0.0066241766855169798
      0.0087522047616207209 0.0013326771361300556 -0.0092643666612420572
      0.014771909649051694 -0.00015755813932403758 0.004870776471793503
      0.0032812059513596674 -0.01035082635131864 -0.0054900417308253145
      -0.00064168224938389654 -0.014726658039982887 0.029804626495045922
      -0.023090405661773082 0.009659642849699725 -1.2848437789527569e-05
      -0.0022923811012442751 -0.015978950705355495 0.0068179407475093805
      -0.013616323144383428 -0.007208914543921946 0.015537731757406002
      0.003207575727290943 0.0014994889306469642 0.0026469110001790227
      0.0075290610169530918 -0.020242675387988893 -0.0059206733276053972
      0.010066865368135438 0.0019307864193998782 0.0032558280418803305
      -0.030928930285465939 0.047402372428039762 -0.035893507931885463
      0.042124180936600801 0.0059733329456606596 -0.027698859904719174
      -0.0050144235424121357 0.036508344467233812 0.0013890620010038237
      0.0067807319551766937 0.012116649563217818 0.0036503355359397164
      0.0064694164655632802 0.0026274120219004931 -0.0072158660920745906
      -0.0087952566069732282 0.014625512695008313 0.005995955309576812
      0.014638249588160915 0.039163751099072844 -0.00674537712308891
      0.004182352926071207 0.0003558565125619904 0.0035790551689326667
      0.0056363752355698691 -0.010325585450266201 0.0038381043476253046
      0.0060114523542438066 -0.00065337652101263505
      -0.0040228230789118051 0.012468241983126335 0.0049342963886342874
      -0.0085725847684338975 0.0064447116791631585
      -0.0030140502890518418 -0.012507606110582679 0.0013829851683149915
      0.0097256445201464141 -0.0042365881719571494 0.008301315840581679
      -0.0046443202148520532 -0.014658683808726935 0.018136320312933722
      0.0079815336610770775 0.0049566884619405213 -0.0033366169862350612
      0.010150378351931558 -0.0052397387485047745 -0.0033431791001663721
      -0.0089741755977903216 0.0070466026508522739 0.0011755802338446327
      0.0020526252126820774 0.00030087341906528741
      -0.0079809400568529795 -0.0019891800966932568
      0.0017761798858190545 -0.0038283987854280913 0.0079039828457200603
      0.0087412504985512895 -0.0064950901827986011 0.0098142705018364369
      -0.01610986128283862 0.01782231112240194 0.0053066620392045712
      -0.0077914470604997363 0.0017309253629988106 0.012897247186580594
      -0.0035615588777032901 0.0083700637411754115 0.0069357849318510412
      -0.0063068384516596727 0.0097922371838659698 -0.01056202792632336
      -0.011221901140564221 -0.006899974773037997 0.013317625945650552
      0.0087530388922862513 0.0078651810386484011 0.016569641976736056
      0.0076085852699421964 -0.012968330985941242 0.01984105635535895
      -0.010670015971052419 -0.0058420643031793576 0.0087104810252083605
      0.018311163104545957 -0.025888481583745484 0.0054824286617799044
      -0.0096265703066249972 -0.0015318995582953572
      -0.0040634688801736438 0.0010676626867951124 0.0058369194448824099
      0.012105059902485758 0.015986072736351446 -0.022388250468528142
      -0.022913856500633347 0.008043798014139833 -0.018195180162302368
      0.028349258851516991 -0.052857416754197153 0.042643381870540051
      -0.040945366696490716 -0.0034158568307105629 0.016253297548316628
      0.019680483832073985 -0.047725994729882135 0.0022718154253721537
      -0.0057827310747911543 -0.0098601304312096651
      -0.0031362296457859455 -0.0015685865649888383
      -0.0014493482884591433 0.0040354484809669673 0.016379373260144794
      -0.027443700977191399 -0.016681870012660877 -0.011725951273651579
      -0.039972835886856899 -0.024990370385516065 0.030710963567948283
      -0.035146130451324004 0.027110795866747677 -7.0806446393281957e-05
      -0.01991121107423861 -0.0095207639945591137 0.029468029312953382
      -0.0070248648203303744 0.0066995878294517008 0.018034513705843847
      -0.0068071151836275262 0.003712039842236255 -0.008631925776526668
      0.0043036783906381989 -0.013152765534241467 0.0058879315263375507
      0.0064980159621642278 0.0078453444242919997 0.017758774774126934
      -0.032081908407348064 0.047892260218386301 -0.065883898508903624
      0.039649442910773929 0.022287689145953322 -0.031367759172727806
      -0.013106734741862622 0.045781683359488887 -0.0015798023007912419
      0.0014726513053533866 0.020402287998260951 -0.0035101376629104891
      0.0026950280246008846 -0.012414101198733218 -0.0050050226576913853
      -0.02167310888261122 0.019079411607912249 0.029429362953089552
      -0.011716577417294045 0.026121926155000353 -0.0054928742936396144
      0.0048049331190315424 -0.0047406979785848272 0.01162773779817493
      0.0010068597531667518 -0.00046117343810194415
      -0.00066622145385770895 -0.0080276132222234144
      0.0079664951830958116 0.0028174277571619763 -0.0037783645042860645
      -0.0023500406692509826 0.0020438120303972506 0.0098868363200478974
      0.0053041158036430435 0.0019799623314936399 -0.010924556344600675
      -0.0016559213827310475 -0.0081767730816406613 0.010741685236692255
      -0.014582343798043006 0.028747397021087716 -0.046804882931407957
      0.034428119218114485 0.01255416388930479 -0.014019294425140716
      -0.014014528218283737 0.024364523774568148 0.0082441243020951911
      0.011061381872734279 0.0015697086351985944 0.0075781876726979435
      0.015620211624877296 -0.010509879448208555 0.0045499466087584655
      -0.019308858388388112 0.01238633939796719 0.0028188141970460542
      0.0054382665997610826 0.024041788630457171 0.019062008373784096
      -0.011186865243322451 0.011291976131661536 -0.027633388944927121
      -0.0094910954086186265 0.021808377549144175 0.0063490145226196238
      -0.011071246659995803 0.0058052116539006092 -0.013893263556899077
      -0.011762529839945515 -0.004059884570961134 -0.0017052677810631208
      -0.0085257426208892022 0.016369433882916059 0.015682593436005771
      -0.018252873589103207 -0.0014717440709251886 0.0019104983788713534
      -0.023697836122625895 0.0049279915829221589 0.012535561523429129
      -0.013297354324377892 -0.0079284573173783388
      -0.0065730527489531142 0.0028393706034379714
      -0.0095868029429955533 0.0088406002493705733
      0.00015339851672892816 0.0022088505162692301 -0.00587416971109073
      0.0072435726897419834 -0.0059231671684818552
      -0.0010772926864050115 -0.0032967332611462301
      0.0062971442074440621 0.0017244105091698142 -0.0090684129923905166
      -0.00088722108093364661 -0.0092927159848706538
      -0.004329007106661357 0.026480558482571869 -0.013963228719261632
      0.016923246498434165 0.0078428546277048202 -0.010035292471180702
      0.0031189721860183741 0.025488823577387961 -0.012205960013386329
      0.012350261012780535 0.0027840159037427871 0.004415929769859165
      0.008452030920065759 0.0023136965759650765 -0.0090834807955436497
      -0.0015193905425418216 0.0016552884260992327
      -0.00022797388586813944 0.00067554799039849637
      0.0065164546485295526 0.0028297255500480552 0.012442707824734292
      -0.018247332611423184 0.015150902802399896 0.01388402193464156
      -0.011096868174477104 -0.015395906820862382 0.0059875206856862704
      -0.0024644181701672417 -0.0080184960675317701
      -0.0071809803247278002 0.010448013948398022 -0.0019585799323459047
      -0.006664093667275453 0.0009181725075526158 -0.0070513289047460384
      0.017516249788395416 0.011411104847506567 -0.012372655018889428
      0.0031900873967581232 -0.013196547382025298 0.028935929574802982
      -0.041753682629983607 0.034619657975851828 0.0046350946253279823
      -0.017019373962674778 -0.019941888465025169 0.022553824243080094
      -0.013581264262708375 0.0047360991694033122 0.018910595749947315
      -0.0042533909615415904 -0.0054059682850335217
      -0.0020576367552843935 0.0055785166715887425
      -0.0035593045064104072 0.021552171235328058 0.0070328416227386234
      0.0086811978300139394 0.030237288961459979 -0.0024574097462257928
      0.0053840358272618872 -0.023992026008044752 0.016901381499621969
      0.012178625929879356 0.0016379742023822754 -0.003686840213546495
      0.0057671613216443256 -0.0118941605781255 0.0010352524946029831
      0.0025918921266845697 0.012788597020219878 0.0040523352194955205
      0.0043910609060665738 0.011703594741574903 -0.009924474773928391
      0.015492524394510149 0.0073911630326180854 -0.0053497602903511072
      0.00081488966282448189 -0.016173638973738858 0.0057039475205669142
      -0.016186217623789752 0.014753214630484323 0.010351189728828794
      -0.011343323633366518 -0.0076198933519531107 0.021182676930193857
      0.010231959845557668 0.011050416214368183 0.010522333605020291
      -0.0079886800390499193 2.437430145948973e-05 0.0041204535905104284
      -1.028516213473467e-05 0.0051071670838527053 0.015124918716094041
      -0.0023640873162319954 -0.0042975625542718476
      0.0086853253898121156 -0.018476996893442378 0.0061146089923371765
      -0.022771838588312037 0.021035480729467655 -0.010731922969568965
      -0.0081201285014859022 -0.0092120677912865493 0.016115199350225606
      0.00030357306092100719 -0.0056972643856850417
      -0.0062561120125883699 0.00029158168139950763
      0.0053487862085926721 -0.0025144357208438722 0.0081150829987360566
      -0.0070795208562340235 0.015704886442592502 0.0020011492092758777
      0.0026423775387711341 -0.0037491222205292096
      -0.0063668452909742832 -0.0065621608958888597 -0.01971211960869234
      -0.0066102537200925732 -0.00059717156024709087
      -0.0027572215941290071 0.0097876858140564949 0.0012274160371481856
      0.0038449834538987946 -0.00097608349636453572
      0.0010188805454952861 0.0069597362845837752 -0.0069049069686020091
      -0.009439226661859642 0.0093758890676421871
      -0.00014969032540064684 0.005935525973265761 -0.01017823107908797
      -0.0078176214060065811 -0.0082727729532499211
      0.0030238868725573848 -0.0084992758230016154
      -0.00041434203445522274 0.0075924135442336279 0.004186926376145832
      -0.0086746283744484794 -0.00079268153411233698
      0.0055295202663513121 0.011640715420129321 -0.0035159546250464581
      0.011832398009905688 0.010334798354949985 -0.008330617607133519
      -0.0043999319842994633 -0.0058811073362870052
      0.0060068026697223543 0.0084085909243529454 0.00097093647851985388
      1.263261404837645e-05 0.0055037275705443972 0.0042494570398622557
      0.0010809875044502323 -0.00069983015796495289
      -0.0030696661018157849 0.0090900181932221588 0.0066654950394303232
      0.013784572212909801 -0.0037062321260191836 -0.010756511346903613
      0.0072766608464185124 -0.0012697363289660103
      -0.0031053534532406593 -0.0081850102836899166
      0.00014243900195046172 -0.0022889743578313978 0.014781234166603194
      0.0099265301685085589 -0.00087171624747790744 0.002152472688295879
      -0.0055771136469842794 0.0091624562143859632 0.0024656658637781988
      -0.0012806584139138948 0.0039627389092796702
      -0.0021410848803351855 0.0039001607224887136 -0.010737443689162638
      -0.00029331943155301045 0.010354366294782431 0.0076530647592967004
      -0.0023366060171952528 0.01066842417504337 -0.0076505004628451972
      0.012015790276248802 0.0034460699527045823 0.0077576515220466888
      0.0028456460500301509 -0.0069653045385202712
      -0.0015281911140754946 0.011443997759951337 0.00029087548282858344
      0.023424791291401334 -0.029565125041835984 0.0081133696035689696
      0.015223607289362675 -0.021229258588352042 -0.0025851417185324892
      0.022869155047051812 -0.013832109453619337 -0.0054840215857005006
      0.0043023235215137404 -0.00023221540453202065
      -0.0076779395161146935 -0.0022162588096932261
      -0.0037726479857761014 0.0020257780017199252 0.0071801680806853653
      0.0080159022842575672 0.0088921415433611088 0.021531506896551537
      0.00032792358868052402 0.014298412154722429 -0.028246601248963613
      0.020012038329262981 -0.002297414922147481 0.0026477841540657188
      -0.005527872290229629 0.019516969747931566 -0.010389780500889234
      0.013564611087844418 0.012354740926637537 0.0037247198906385551
      -0.0028927590214995972 -0.0066717752638298065
      3.5899453850994661e-07 0.00079572265879580524
      -0.0042279001190997532 -0.002845230335775628 0.0091168916791963001
      -0.0014928319140055889 -0.0078317146489584252
      -0.0045430019703704191 -0.00022075306723803742
      -0.002756400870420526 -0.0080461738625372224 0.0016059360349701584
      -0.0071278777214280687 0.012415367810024763 -0.012127752639917012
      -0.0038210295788181437 -0.0068079578410899615
      0.0012937162088022286 0.011016311392197364 0.0052339606020133239
      0.0043725710738108103 -0.009791039804680773 -0.010913389219502662
      0.0043576714257679873 0.0080594230953153663 -0.0021406039357177976
      -0.0022454283777076896 0.019513020200364387 -0.01700066152061102
      0.021093297588424591 0.0020805162521260142 -0.0027709860995190796
      -0.0055351992785379334 0.028904194308892871 0.0011703519647987559
      -0.0072372914652684642 0.015586051051245553 -0.0078779875927570339
      0.0095154535431413393 0.007687724863934541 0.0021691273723519217
      -0.014924468409285203 0.0032591591048980089 0.012612683619218756
      -0.0062367938363604011 0.020238867927434682 0.02657611254175531
      -0.034675847240946737 0.044937923660365947 -0.034701821090846519
      -0.016317835443595739 0.015304926787576839 0.001661489918159717
      -0.026566703591781666 -0.0010233360272158178
      -0.0075487536398858327 -0.015735486623609646 0.005922007618667559
      -0.014973521698994069 0.016634854598206877 0.00052931633574730317
      0.025957360633816533 -0.020344942430182936 -0.0094808170506833194
      0.003880251138900248 -0.022841434152008108 0.020730579943909686
      -0.025409257331012965 0.02815816105013982 -0.036466184438618723
      -0.02184741100020263 0.013060888324495716 0.016288796983706982
      -0.025531511886936448 0.005104177924910254 -0.0021584975706447876
      0.0039072031188033228 0.0077630996860273797 -0.0091908992098184584
      0.016568164696308528 0.0018896518906765471 0.018622302706090867
      -0.0053600715789310412 -0.02357878789191889 0.00083898509018333865
      -0.02780466441604355 0.028055273775809277 -0.020932425226438848
      0.035623614654155519 -0.028289279641875165 -0.014146658644798729
      0.028445233405806077 0.017164228107178388 -0.029797768074671431
      0.0020981359929330874 -0.010374039615987186 -0.012035268628441653
      0.011922875864102744 -0.016187336742089106 0.019586085037115574
      0.014828946510369468 0.022436273168782991 -0.015085981625532758
      -0.0069051110599743226 0.0081850752424438202 -0.037649435343389957
      0.0071545881138330523 -0.00096410750237905824
      -0.007606834867929368 -0.0044626488338958643
      -0.0074832689785675989 -0.0039591796497552073
      0.0084679513065411618 -0.0046123611355359138 0.010286078150818717
      0.0064323514043206362 0.0021341599108004876 -0.0047278523470293916
      0.00023591252423440137 -0.0020788223819484487
      -0.0063868790382743913 -0.0090377617174098469
      -0.008394555744971598 0.0014740455120190522 -0.01229461528076127
      0.0059500417421260261 -0.015309178459728186 0.010044843599858633
      -0.024884032106392871 -0.0013464205238483255
      -0.0017340522641021588 -0.002784426533912269
      0.00098299688695819318 0.016837476059561329 -0.0062899259162344026
      0.0027048567863702223 -0.0045473922718844472 0.002679493662537287
      0.012250260961089098 -0.0021675607968513742 -0.0062449499696913876
      -0.015067045397411308 0.013849753835282634 0.0044344784506866455
      -0.0044235516402196537 0.0042785958271329702
      -0.0097526942152148521 0.018265505870613114 -0.04780004611174505
      0.029739823784055413 0.0070750287050036723 -0.013599635913798447
      -0.0068072287250712836 0.030493916065726927 0.0063257346007677198
      0.0061390569047394461 0.0093763833109531819 -0.0063520851067691338
      -0.003731904515209862 -0.017019596677192037 0.0071488631183844933
      -0.02259799790598924 0.01209134791524942 0.018422991240257019
      0.0053752231044444237 0.024802136380423234 -0.0021863659341173998
      0.010317047980839274 -0.0090164339750330499 0.020160661836752282
      -0.0091434584663095449 -0.00049458748114269144
      -0.010321953614925473 0.0033281384524583312 0.011996954985822449
      -0.0038177698665984076 0.0043497198540514677 -0.006340981630245518
      0.0076672002334076577 0.0071893743497023236 -0.0056252226866775829
      -0.012080917975229446 0.0014016621440454413 0.005508592952082351
      -0.00070633212760623672 0.005762270691260651 -0.016281029111559518
      0.014287852839462439 -0.031502190962578037 0.025733520007842178
      0.014488572915454219 -0.016566934029637555 -0.00467811402746845
      0.030505815803348987 -0.0053826994292020076 0.0066356733552384774
      0.00053882647899378914 0.0027820832420688228
      0.00039118090773561647 -0.0063185536850163624
      0.0042814339294671797 -0.015435215786525553 0.019024153677274763
      0.020048420442476941 0.0023759453615364401 0.02591608148220266
      -0.026819185655152681 0.043413683107461486 -0.060017655086088251
      0.053880457612796147 0.01259442902801566 -0.032278852100785571
      -0.017334535017504309 0.052571419027308858 0.0030535112283336676
      0.013839010140728501 0.0068037775908965587 -0.0004583722188040044
      0.0064172220230223273 -0.015987848768269274 -0.016906438058022461
      -0.018891552034150823 0.029287129559095716 0.025346096234350468
      0.0053836379323533223 0.040835930349003485 0.011757520070715261
      -0.0052002608591235752 0.0042682338662214945 0.0085799623368332748
      -0.014850923368972264 -0.0093054223126684352
      0.00045739151700704728 0.013842658018154841 0.0061220626114895605
      0.0070287218187793186 0.010274604065544053 0.014294867989002362
      -0.0080841711549350537 0.0058306733972489219 0.0020507308966056636
      -0.0098269995410093063 0.0023101240456761432
      -0.0056344950817668101 -0.011749524818501602
      -0.0069223785063891033 -0.026113870482755864 0.026360411343010332
      -0.021388190408988518 0.023237293468234149 0.016753383953840236
      -0.0052654003625828283 0.0020807731219335424 0.018250116478904128
      -0.0040454508712933386 0.0017857992505945202
      -0.0072497798482089619 0.011511061984396545 -0.0033428351643934283
      -0.005168830467211249 -0.0037065121720468784
      -0.0061074975048861953 0.0037435579118646708 0.0091098210419585796
      -0.0062664805469334964 0.020963606034813686 -0.017985640112719296
      0.024307478745885989 -0.031707692040139485 0.014759268657224657
      0.012119647639507992 -0.011544855049409684 -0.0042159443445411926
      0.020117279368813999 0.0062837752732638379 -0.0079067959538533187
      0.0020127912266803779 0.0051389138532106629
      -0.00021295156784216171 0.0033638120536461408
      -0.011741199720586796 7.5431896278077922e-05 0.0059094371574041063
      0.011596124718620553 -0.001734860430515428 0.014414066646663811
      -0.015461086660536954 0.013305083082391277 -0.017285649423262273
      0.029955934677014073 0.0035399757676801268 -0.018702073512800978
      0.0027070127874201603 0.010194373233836958 0.0060328951459743575
      -0.0038146566801486354 0.0069491204632161682 0.0021973529803698136
      0.0047903249506383409 -0.00071604371475530418
      -0.0078001749726465215 -0.012166825455082771 0.0091289949763864973
      0.00077296341235920602 0.010320458821557374 0.0023659659847365079
      -0.019632649633608029 0.0345375306212308 -0.029469715471065951
      0.016112845995436088 0.019182374089445963 -0.02568192009675235
      -0.004305212095837836 0.021493637241717184 -0.0047234456810361647
      -0.0091604676332986343 -0.0038537460099224148
      -0.0078735896814147929 0.0028643556786720312 -0.019280731648865252
      -0.0084438785751866606 -0.022584892236493737 0.0089812002037194978
      0.0086513453740549983 -0.0096591135899689855 0.028856504726616765
      0.030050035734939123 -0.029569927054182446 0.046192661308068983
      -0.042755465838633731 -0.014142379213475021 0.012518411365501482
      0.026350803425812166 -0.043579759090246223 0.013366086728471369
      -0.015362903688365718 0.001529020081261698 -0.0078546202148707944
      0.0026104662037359687 0.0031023043078026585 0.0034406809294068087
      0.023821807733151252 -0.026780192788145755 -0.026378044974459353
      0.00098120345328692182 -0.035154770589629292 0.015916836021704569
      -0.013585794185168523 -0.00018763596489522935
      -0.0020603549840359555 2.1310828254280198e-05
      0.0021927685310758863 0.015355312682995875 -0.007577285460658432
      -0.0089465000491986899 -0.0039190734401342783
      -0.0088424618351241012 0.002015892849115926 -0.005383804453864988
      0.014948224659170282 -0.0037478743567795842 0.0024905280894982544
      -0.011616717067432147 -0.016307394104564988 -0.0048446742882179237
      -0.0053927904321752745 0.0015099972581442741 0.012838876744458882
      -0.0028527636655041708 0.015574222350799971 -0.01361093110245443
      -0.0027018220767151594 -0.0072162404979691716
      0.0099510333799723311 -0.0014582947035624496
      -0.0074287277745438132 -0.0057778938222988133 0.004417276801536584
      -0.00065715078999155298 0.0038436470756081217
      -0.0055084008892353192 0.011726531191952017 0.0091916696474255294
      0.0053120516364295219 -0.013601746542915065 0.011910578079296116
      -0.040887850683427519 0.07279603537477751 -0.089534257202931899
      0.070981664480112422 0.014616821470263051 -0.045160195129973893
      -0.030460567292655331 0.077693416547192445 -0.00077228636180594996
      0.012281605391548194 0.027117052683816124 -0.0062107054226497203
      0.007409725448698664 -0.0063804943718788658 -0.0041288115947581286
      -0.027225809106114621 0.033249153296696601 0.040479176887094501
      0.006601412229406022 0.067471619564381816 -0.03129108161747847
      0.055335051948783069 -0.078042765731720948 0.040142719410122235
      0.027608613568376576 -0.045060052451334286 -0.032261004281839603
      0.054833618710773913 0.0010853642445909583 0.0037587600312126205
      0.027048605677766974 0.0043191762415114663 0.015179999155959984
      -0.013412246615939894 -0.0091662022194195676 -0.021615324260043901
      0.025596238070917571 0.017050245786002793 -0.0013762836730792706
      0.057573957944418129 -0.0066865870584859755 0.010732749725774102
      -0.014171205075529996 0.014182950669541184 0.0033179432146898348
      -0.0051678294178956813 0.001784147145886601 0.023513568810206557
      0.007446950564118926 -0.0064914858988269928 0.010277047602875469
      -0.0079855496341494844 0.0048126157752025065 0.0054928451951056197
      0.0037865210659958318 0.0015462975273935879 0.0044204260834308498
      0.014214973762650365 -0.00024056307836222828 0.011235725184320889
      -0.0065334668292497452 0.017554403120954808 -0.0016195420293592256
      0.0061708367726743436 0.0044807816359958667
      -0.00016613878325794586 0.0087058446512634207
      0.0080647804787696842 -0.008676917055077794 -0.0063863525864414445
      0.0053179125152749392 0.01010532291098973 -0.0054920923946948858
      -0.01118119586018777 -0.0045166978700971272 0.0078504127745466883
      0.0024451400630383074 -0.0023436570882916469
      -0.0039767701634005779 0.0015799454576229956 0.015989987777001041
      -0.0093967241100892523 0.0050838418334892338
      -0.0027778223056470542 0.0088186409876252637 0.0076097336097135024
      0.0073399783069210429 -0.011291274149695182 0.0042314849561671357
      0.0025703061775416433 -0.0030175972284641776
      -6.1420550940547718e-05 0.0075484101196393091 0.011755258228419869
      -0.0016119581690896652 0.0022239687532619608 -0.014841412204223513
      0.0014942473413818648 0.0046842206926889307 -0.0030143240623631438
      -0.026421306361553199 0.047775190507795967 -0.064283968262121252
      0.045554774227995282 0.0090042531644088705 -0.016694068744693598
      -0.026058826465474531 0.042280501172538724 -0.0125166303416773
      0.014936515174418309 -0.00097244772175450792 0.0055368819840135525
      0.016827770272038585 -0.0084143191618238095
      -0.00018281255027934547 -0.015027877976183129 0.023599511510458419
      0.031378524675127105 0.006340655679615898 0.027014005846963188
      -0.012812678776361375 0.016432920125088974 -0.046055316425059528
      0.026454924214834113 0.0016453369780559414 -0.030909893687748581
      -0.0081676592054476822 0.020719279491571468 -0.011963612865091237
      0.0045403836393849949 0.016955793524489025 0.0051527447246727054
      0.0055042525998519392 0.0034958937777073811 -0.0087748180221987864
      -0.022547778755224356 0.022203393790683604 0.003128218953277155
      -0.0115796290336674 0.030350153813865816 0.017828921988089344
      -0.018412556784602862 0.01392182207086474 -0.025534657121610547
      -0.0094519977647813131 0.019620302268505363 0.018535742405687377
      -0.0048503850769481081 0.0039556195059068091
      -0.0018939361430345637 -0.0074985623118910471
      0.0035103327931153738 -0.010705088169986774 0.0064926635651228271
      0.0012953387014687505 0.013487650298570528 0.0011444386768506953
      -0.0030840600048404098 -0.0036575969519831637
      -0.022857237490659502 0.031131034374914199 -0.055081137466273675
      0.076868141025803374 -0.057537849249376417 -0.019318214711065707
      0.023816485761365306 0.025089497725022159 -0.068003417937578373
      0.0027856623175413122 -0.0045571253278195089 -0.025696859129597387
      -0.0035365567966451025 -0.021118443128307605 0.014967191130533944
      0.00048265565654015023 0.034388528503727665 -0.018196003794707285
      -0.034938989305735746 0.0066026606205802632 -0.04963728907255676
      0.027736681926655651 -0.034470784461784559 0.033209114281046191
      -0.040188751895226672 -0.0023376165657084816 0.034797592226189326
      0.026893205823877091 -0.031717666421990705 0.002040417700224611
      -0.010514543747617091 -0.0011690219101187229 0.011269948997291199
      -0.021494583252268926 0.009077260072703125 0.017205144451468014
      0.026513185722189161 -0.015626276800744056 -0.024726082742350199
      7.6151856529501252e-05 -0.028987174674979035
      -0.0081408256230222891 0.017381246855917395 -0.0070766194198296642
      -0.00098671977215524106 0.014777442703697376 -0.010154058682637322
      -0.0081784036545967595 0.020523692737783331 -0.011949923487607639
      -0.00063706720662190974 0.0037965805786571698
      -0.010611156832264894 -0.004831827754455318 -0.0043978219563092138
      -7.7078126533702756e-05 -0.0096711138255468256
      0.0029974028321232077 0.0015682022009127405 -0.0056379554143251957
      0.003320471099880391 0.056123442833847369 -0.075339074562677563
      0.10727381534825081 -0.086440367630379544 -0.030984469665920951
      0.048948486821198622 0.022681716034703803 -0.082416615963741502
      0.0072324120375088586 -0.009881708723196268 -0.034120984296227716
      -0.0050285008860375575 -0.011506522693663495 0.022007714306526035
      0.02223342624851038 0.038527103250085959 -0.043798478040010448
      -0.039729057315240131 0.00074652669170264922 -0.08843962282795105
      0.017429460603888197 -0.031563419885029857 0.028868659490037252
      -0.031080248943156634 -0.0035790826485220754 0.025568588085683849
      0.0046970784620106983 -0.017321288828843998 0.0021720501536040982
      -0.011082624293046982 0.006573520077296423 -0.0050194320359996866
      -0.004764613760755999 0.0022616145439519949 7.4000761991031047e-05
      -0.00027916540699366224 -0.012265876429397974
      -0.0049286363604903356 0.0076305459275755874 -0.015216664286851964
      0.002742475794491865 -0.0025194691610331611 0.0053750942459562089
      0.0031090440311464327 -0.0057199736122206914
      -0.0033567490571468879 -0.0028897866403752872
      0.0028070585860931561 -0.0025632658139448212
      -0.0052966453772763924 -0.0070391484336064071
      -0.0068806420194713423 0.011133943178277218 0.0081578307568949196
      -0.010479195848615393 -0.00037138506360493844
      -0.0036491617846050213 0.0013962326632898404
      -0.0014149272285632702 0.011094892823890002 -0.010278614003954
      0.01039553183713336 0.0012262438205603611 0.013498893125870553
      0.0021840461237332531 0.0072532507893148706 0.0036816804903980378
      0.0131342595146339 0.00033399318040650602 0.009635889501350076
      -0.0035570349093932462 -0.0033510486805462211
      0.0047047892096763015 0.0071902958735204862 0.0068919904020779965
      -0.012083727393004477 0.00056742939758325456 -0.007800028665202594
      -0.0074817969440304985 0.0091776488376657302 0.006112207685363108
      -0.0054350403397023742 0.0080485208784763628 -0.009987508251924045
      -0.0035138802162092775 0.0061754235691662265 0.0090793453883800182
      -0.01867337889599344 0.010661932937902265 -0.0080730259901317537
      -0.012483193963055576 -0.010173278636367271 -0.010121224621618387
      -0.0082871056727952842 0.0068376703011257325
      -0.0037392058275062473 0.0029053805242439637 -0.011361610790203423
      -0.0095511877593060304 0.0016446059197112834 0.0043070290865832479
      0.0021822680922413879 -0.008946819777506887 0.016045345873418215
      0.0056966300244763795 -0.012348736365499505 0.006948206657251898
      0.015128097726103277 0.00076593297066173739 0.011197308515111856
      0.0096821630080114341 -0.014914655083064568 0.005844612905177151
      -0.011599941260575387 -0.013467405180453387 -0.01176815631226694
      0.002627855901126313 0.0089771581067186607 -0.007149148002239359
      0.0083552747064079506 0.0338926795167473 -0.04123724668288363
      0.049419242373475676 -0.043380091518634888 -0.005229940629276497
      0.039069745527094232 0.0072749697775062331 -0.053016276353134911
      -0.0059005560726680352 0.0044853516755566456 -0.010203241590014487
      -0.0017622590960399409 -0.021008226239698953 0.011359103661768082
      0.011651141835590741 0.032720371043879662 -0.013863704174164529
      -0.024283349009390248 0.0031927625105426963 -0.034940379193888003
      0.036575427837647653 -0.042206925640764309 0.070489832028781327
      -0.043204401165843766 -0.017399555858512838 0.042261097414491036
      0.026618572922677431 -0.05661587758539801 0.0092844485056846702
      -0.0080723820441417904 -0.012554478045290623 -0.010784306047453215
      -0.011296150663673761 0.0065148967499860924 0.0076783551089064372
      0.033029380084243887 -0.029610606811501905 -0.033319207856728927
      -0.012912776447450839 -0.044278102836059444 0.034490599883004243
      -0.031015745229320206 0.052317192887284397 -0.03574016219972239
      -0.0025849235671018158 0.026966636703956205 0.011380980484218624
      -0.043733084549650768 0.014218166493693191 0.006467858255439168
      -0.0073934121937672802 -0.0077551410378506637
      -0.017461500199724006 0.0091308731531282872 0.011679912730823942
      0.012937716243154507 -0.019930236192866199 -0.012373214561337213
      -0.005319543298378436 -0.0255094529900626 0.056931230598969103
      -0.059841351168548704 0.084085089402742133 -0.054919987795671026
      -0.0094414399383926598 0.059416123730714102 0.025037008691846985
      -0.062498728738246523 0.013166879596449329 -0.014045135513027308
      -0.02922673176245081 0.0047568883271981157 -0.029471466959783508
      0.02441234134298825 0.0056482354496570474 0.043509888759279552
      -0.020474851190423433 -0.035123829907577751 0.0080147848376146413
      -0.057504326498988907 -0.0026775049801728247
      0.00013704351921392893 -0.0071031154505645355
      0.0070238828728804393 0.001398960772615944 -0.0039250835363707284
      0.0060899196989643075 -0.0026826003895295712 0.0033589616079458466
      0.0010288770709418224 0.00071039835179488294 0.0075188694952272898
      0.0015123182612798375 0.0018061043676114185 0.0058410168200684152
      -0.012070130896616455 0.0051384121498495913 0.0020092766701646806
      0.0076793350483002143 -0.010112630652313968 0.015885023276598423
      -0.022310055085946658 0.023552151719248841 0.0001213592518455527
      -0.012377453034167308 0.013964128449731659 -0.00065639055771555209
      -0.0011426682104856572 -0.0078702606550191834
      0.0020711620597318307 -0.00058958512428874835
      0.0068873613509874221 -0.01297082457971342 0.015213242805880173
      -0.0076823735927810961 -0.0035446072756245427
      -0.015497268467196554 -0.0085073380157986225
      -0.0085441119600382347 -0.015983613556563029 0.017305506112461698
      -0.0010911706369324365 0.01323118116198871 -0.0058986612397044138
      -0.0024792243659939005 0.013945327414907038 -0.0014732435208786566
      -0.018803242731989359 0.0058016211532832887 -0.0030448950915610601
      -0.010848945626672624 -0.011836372717928745 -0.010289102431575275
      0.0035582063725588605 0.0093403910679669272 0.010637714323040471
      -0.0060981507335003621 -0.016014159356649366
      0.00067323835530986036 0.0020470342784972466 -0.010576812108164208
      0.021393602856294332 -0.024973309056154983 0.020843080597810756
      0.012096064066276181 -0.0012054735027095351 0.0041409261697794783
      0.011216938678921063 -0.0083873759577170626 -0.0064509461394197899
      0.0034260044226766305 0.0085360367937643133 -0.0026835567268756085
      -0.012625112390884527 -0.0025526225514771296 -0.017121345131963828
      0.018940592234821002 0.014189988992084774 -0.0016500527142708497
      0.0086361060116998886 -0.032135191637551914 0.026786994356728332
      -0.033341413292594151 0.047127129275567552 0.013656973882227925
      -0.018165555855452556 -0.015928454560411413 0.037196730916617848
      0.0037330953784230842 0.014223395264880305 0.00025496230841305287
      -0.0066184715278357412 0.0047413751406957857 -0.018681291179544698
      -0.017258807873177216 -0.027053123755065491 0.0070445130327225092
      0.01503299136716193 -0.011570409649099445 0.042838841518702334
      0.024199838718254651 -0.036820323874030281 0.059581213838972358
      -0.054171837546900914 -0.019870899148812043 0.021774604474456637
      0.017659235734649902 -0.041190541218606824 0.01388015060092436
      -0.0121460113929573 -0.0018654500244260979 -0.0019138603896926656
      -0.022669980822793371 0.025707459383861011 -0.00050676487492256749
      0.031359227738780728 -0.024458046098131583 -0.022207722469159773
      0.0092473888267068424 -0.04497707325091696 0.040796502540473366
      -0.04759137309144542 0.05387484469035534 -0.036186579717003592
      -0.0055785984673572056 0.040038024345525371 0.028527455901577108
      -0.053176874277876499 0.01292229728419669 -0.0025480061412280898
      -0.0022368710634938383 -0.0085944837787900446
      -0.0067629610349462695 0.016124142340281294 0.013123879691837124
      0.026581372743034799 -0.022054476353864046 -0.030611086927556704
      -0.0061151366735584384 -0.03520247841280124 0.03556999675265568
      -0.053361599964471096 0.058904678185808787 -0.059691077122467448
      -0.01998345297094923 0.042696282714281462 0.033210151080326121
      -0.057527947843987057 0.0013733720371307211 -0.0048006309187431408
      -0.0079093223140808151 0.0041187335105893341 -0.014855133109778302
      0.0037481060079494299 0.024758904357111772 0.02099517008390404
      -0.02840738949448178 -0.016954428572911968 -0.01152187124268551
      -0.056350501369864178 0.10985910574973938 -0.1476532898165995
      0.18790640423184832 -0.13952276447842271 -0.050545209792956229
      0.08942980548392794 0.049401604188151545 -0.1608022532297865
      0.019924990263388308 -0.036814946177331907 -0.039559077975535435
      0.01906188287946067 -0.021650985032792221 0.02344694814872161
      0.035179778205381859 0.08051959559686378 -0.057844632341969279
      -0.063850626450616205 -0.010564103374498028 -0.11312929224272218</_>
    <_>
      -1.0107305097638759 0.033231303756260218 0.81614517846963675
      -0.62353520008777175 -1.0123152997856111 0.75330750818791481
      0.44259979571095731 -0.91202288852360069 0.82434482789938779
      0.33627862142294279 0.1094427552153952 0.99853458447730314
      -0.18449500400988753 0.37923391227395209 0.92914897884121894
      -0.60182149264884677 -0.34355401406424813 -0.13335012826635442
      0.94860378668578604 0.60350440609580225 0.56394494435764275
      0.15595822433035131 -0.96091275251442188 -0.80753792587990658
      -0.39758669409990549 -0.66777301534987854 0.695725727482152
      0.97579800561288332 -0.80781596243158249 -0.44710184593092739
      -0.74818633082845176 0.06519300738964659 0.16401985616293238
      -0.40783800443547702 0.45445975590236254 -0.21465168740847743
      0.4269621878719555 0.32146338871766578 0.36093307741873693
      -0.90029364016411817 -0.83695227230541491 0.9724659834926751</_></weights></opencv_ml_ann_mlp>
</opencv_storage>
