<?xml version="1.0"?>
<opencv_storage>
<opencv_ml_ann_mlp>
  <format>3</format>
  <layer_sizes>
    120 15 2</layer_sizes>
  <activation_function>SIGMOID_SYM</activation_function>
  <f_param1>0.66666666666666663</f_param1>
  <f_param2>1.7159</f_param2>
  <min_val>-0.94999999999999996</min_val>
  <max_val>0.94999999999999996</max_val>
  <min_val1>-0.97999999999999998</min_val1>
  <max_val1>0.97999999999999998</max_val1>
  <training_params>
    <train_method>BACKPROP</train_method>
    <dw_scale>0.001</dw_scale>
    <moment_scale>0.</moment_scale>
    <term_criteria>
      <epsilon>0.0001</epsilon>
      <iterations>3000</iterations></term_criteria></training_params>
  <input_scale>
    4.8426248427040965 -3.2406086108807441 4.8967104174668217
    -3.3116487603305846 5.025127844301629 -3.4177876412944848
    5.1094389199460304 -3.5016835197719223 5.2152428593379163
    -3.6041860641213592 5.2927448115247646 -3.6805763511584053
    5.2588628662439749 -3.6729525309447397 5.3475248167488774
    -3.758865141428879 5.3489510624540255 -3.7568728498990605
    5.4704308131027446 -3.8567743413547055 5.3415834233419153
    -3.7935285613373111 5.500185503069055 -3.9479090055454344
    5.5859761035791724 -4.0514055835649865 5.8622084820469729
    -4.2841047147873255 5.6992164923908453 -4.196364449262652
    5.7210160859146937 -4.2238322022874106 5.8036527563752429
    -4.3072058139179985 5.8420722816996955 -4.3792847663157675
    6.0693789408381891 -4.593794354395782 5.7427304489722468
    -4.3473415665054009 5.7005821699524981 -4.3369407677147489
    5.7332485427682558 -4.3767640497233034 5.8692446236554812
    -4.5237343703054043 5.8505366105982626 -4.526784538475737
    6.057996067006493 -4.7139885238364894 6.0153803241537966
    -4.7209428057404654 6.122492650344606 -4.8590283032068129
    6.0868074193536224 -4.8490699028464697 6.106927675320784
    -4.8485459884249531 6.114472603845547 -4.8735537679939389
    6.0830740145417446 -4.8601599626952714 6.115568193159775
    -4.9242235155803096 6.3034714718400675 -5.087988589922019
    6.2188803911225508 -5.0391324503769068 6.2655940127503129
    -5.1087366319035912 6.6334420376584804 -5.4525007834199979
    6.8049572393303199 -5.6050064326550117 6.7844489521835207
    -5.568065506741906 6.651702959341244 -5.46758859078487
    6.8390263888599083 -5.6640724189256524 6.9073475974790544
    -5.7464027088140659 6.9267231303109966 -5.7660954997600058
    6.7570339933118566 -5.6404097084958718 6.6660248322089313
    -5.5595517397440313 7.0973523904639748 -5.9732860175794888
    7.1672467785453069 -6.0413320650922735 7.7786155675177717
    -6.632096049190852 7.731008878952335 -6.5880603109073821
    7.782639181796065 -6.6538214187816225 8.1400865592141027
    -6.9963736844144249 8.1704453114922728 -7.0174815569388098
    8.0270149958210748 -6.9044967195319504 8.0491960717997415
    -6.8874619379143471 7.7604568578819935 -6.6937800453742682
    7.9250662038024089 -6.8385080930596525 7.8635846638235565
    -6.7776912421214996 7.9896009748059598 -6.8663519579612275
    7.7170786891179821 -6.614290715315617 7.7677518966983543
    -6.6387972470214045 7.6944634138464876 -6.5580342271160781
    7.5092069538306356 -6.3748392862884673 7.7386688495696774
    -6.5975661743114689 8.0739422279235811 -6.9325864232611973
    8.0279391564689835 -6.8576683364764426 7.5251711288659084
    -6.415246061413586 7.4708297387537126 -6.3243326566262619
    7.5829424567419448 -6.4055312576828225 7.6447497203660681
    -6.4840021810941009 8.0097539769297796 -6.8483780303863506
    8.0792701756312937 -6.9328778162986104 7.9848736686278681
    -6.8472272800001814 7.8713561287597056 -6.7133133029718861
    7.4765278857405315 -6.3001197081659521 7.5252135020126723
    -6.3151382226401589 7.2395372220049401 -6.0265015311088188
    7.0086802851037158 -5.7812400308644545 6.984527880167815
    -5.7440868459906618 6.9855325437204252 -5.7332699695130076
    7.0683501206573061 -5.8077211134395856 7.1697435888724046
    -5.9084398450752849 7.0440713890266373 -5.7606048579520035
    6.7217446128775746 -5.461062628645811 6.7954828818719495
    -5.5069692574893452 6.9018183551274443 -5.577214180319821
    6.8374308723829005 -5.484286557132962 6.6874425770261396
    -5.3149159165196487 6.7245778969601977 -5.3306084147054644
    6.8968703071769522 -5.4955485681857716 6.7294592591190909
    -5.3369164642359257 6.6279465244157389 -5.2364241589431684
    6.688853022328745 -5.3025544705293681 6.421186870248734
    -5.0614483177436318 6.5172474951000359 -5.0806347414929931
    6.5866751099293568 -5.1251486765303262 6.6894894157915932
    -5.1973671660684433 6.6742324937861657 -5.1748262572856589
    6.3706152123780369 -4.8952585898811458 6.414173544351109
    -4.9096435348524636 6.3583186082645264 -4.8496444781192469
    6.3828672096487926 -4.8250601981247412 6.190436346042989
    -4.6578542378775554 6.1380741411925506 -4.6071193245296618
    6.2919593430788145 -4.728758155092402 6.2171355657155587
    -4.6327563892335464 6.0989955749059606 -4.5238783716368989
    6.0323830076505143 -4.454135119579667 5.9325021775977111
    -4.3366866306973524 5.7367448279683799 -4.1584152060709627
    5.5974876143317278 -4.0060189580139074 5.6308114888632295
    -3.9985174500751457 5.479635941552023 -3.8864493906218351
    5.4691413643501354 -3.8506615059727771 5.3857459276698778
    -3.7809489696744523 5.2578673023152254 -3.6679844855985944
    5.2368894085546307 -3.6533887943590218 5.2572729297660263
    -3.6547026380497512 5.1494236588493045 -3.5464233547837734
    5.0593391023956658 -3.4568852125369576 5.1125223980596397
    -3.4587202355321991 5.084486881342289 -3.4304496451248698</input_scale>
  <output_scale>
    0.52631578947368418 0.49999999999999994 0.52631578947368418
    0.49999999999999994</output_scale>
  <inv_output_scale>
    1.8999999999999999 -0.94999999999999996 1.8999999999999999
    -0.94999999999999996</inv_output_scale>
  <weights>
    <_>
      -0.014033417087609608 0.013903536702552099 -0.029370673821408833
      -0.013933986849809028 -0.012686133185912626 0.048923271761023138
      -0.015525628270231772 -0.012523002751462389 -0.050466570304937751
      -0.009669330355979975 0.035032219776316736 0.0056531666576255931
      -0.044079527853958106 0.017018723102461573 5.1367252455321281e-05
      0.0027328625748078107 0.020847617177879765 -0.027621820936279674
      0.005294554437478758 0.0074863207854135054 0.03339700664996046
      -0.014664781199695089 0.0026201501713549258 -0.017711077905220134
      0.0061989111470271609 0.0058564735774067058 0.028447605545516452
      -0.0036139385385727855 0.00047473922796669729 0.01154429688726467
      -0.0078388851368816053 0.028191774277395307 -0.025002123702674215
      -0.020323194215441355 -0.0057950539536776331 0.030434642450724674
      -0.0048440723953240856 -0.019062013289019315 -0.026585762258231373
      -0.0031919725077746309 0.022760808460939166 0.02933458311233917
      -0.005718001951162211 0.00085621584045128139 0.011368452519351094
      -0.014960216262422504 -0.012408165585308505 0.0063451033986742398
      -0.0042666788716122532 -0.0092179141591320086
      -0.0059345363365216949 -0.010560562533062104 0.0056315854806951848
      -0.0022308841868536821 0.010222343226738524 -0.0019433593617587245
      -0.0095361732699790064 0.0024575326428248161 -0.015007442578649229
      0.013290809249855064 -0.014065887398167075 -0.0087311334182765214
      0.0036148667745803083 0.0025647866450234356 -0.014276726545833224
      0.0087328909095964625 0.019038528729714402 0.01077566354923974
      0.012233025308065686 0.0099982429433853083 -0.020401189013932512
      -0.0074469099495325618 0.015429757953601774 -0.015861241315867615
      0.0032599867895662647 -0.011120936639567088 5.1316968578615764e-05
      -0.00097414306971847157 0.0036546293022145316
      -0.0027834150465537179 -0.011255464876351798 -0.008024645219289717
      0.00026674351056339278 -0.020509369446752891 0.014823183057735693
      0.0020326418105368759 -0.0078658550926765883 0.0045180198837124598
      0.0028079625535920695 0.013616471002295898 0.010310139386087108
      -0.011798929284081702 0.031627209293833683 -0.0090377342007121296
      0.003703779108962902 -0.039783907534894233 -0.0019565378800533713
      0.0022794379849429159 0.028526148179328935 0.018856345699003102
      -0.015777059007089735 -0.014949781611785262 0.020604826609311937
      -0.01933991259762945 0.010646140754340528 -0.0094975335424098781
      6.0169966553633957e-05 0.031703927690508074 0.0039882294365833383
      -0.017879307780788598 -0.013351209278905544 0.011102866603246025
      7.1429109529036973e-05 0.025468876828088492 0.00033500561066161436
      -0.021401885369891863 0.0011402708139292403 0.021769109831252388
      -0.0090835947835323731 0.0037452830427563053 -0.010760958888510105
      0.0074366829251046179 0.00022140405698648053 0.01074210073056427
      -0.0088875670585984983 0.013896072719924985 0.007939826613130252
      0.010563110730311595 -0.0098525512858747243 -0.0042777025591004747
      -0.0032122072474574572 0.01053344752665478 -0.013945740427829222
      -0.01499762478983851 0.0052294081328491566 0.0082662259916224477
      0.0067460597767580602 -0.015943424716574919 -0.0039070802735573793
      -0.010682122243195038 0.0087918562280514222
      -0.00033678355472586784 0.0062053727664041379
      0.0068832956581004797 -0.014809205420559343 0.00086886842415297226
      9.6443618426665453e-05 -0.019064400469232707 -0.013025481969777875
      0.0020226963096602758 0.0093890439025859865 0.020145467057998825
      -0.024292369444801665 0.0062442261017781253 -0.0076518729276048945
      0.017153047898795789 -0.003430217403648279 -0.023665255485380655
      -0.030774442534059903 -0.00082628949673362213 0.019906630046343448
      0.0067928265015522191 -0.024912638083065836
      -5.1161269388249284e-05 0.011767592748342225
      -9.4108547876870595e-05 0.017068936712757214 0.010289050081276133
      0.0029080358597205033 -0.0043022310995914732 0.0098811614157612148
      0.014647703905806071 -0.0069558528127324163 -0.011862752428424236
      0.01198288440158336 -0.001293488703958601 -0.0036508048042550316
      0.0091952824898919854 0.0077256531218084989 0.013588812624762053
      -0.010923787784411956 -0.00012425281085102545
      -0.0087237132397678975 -0.0028995525712738894
      0.0050540128683994028 -0.010062113066479727 -0.0066332737814386736
      -0.0079003512063057727 0.0071933010104881122 0.0072006148784288437
      -0.0045842229505681847 0.0038773857962247911 0.020713521784598943
      0.0028566010473810885 -0.0029447256584039009
      -0.0082853762877511013 -0.00045485712642576301
      -0.0051051528819793246 -0.00020494622823446452
      -0.0034843687014747839 0.011937805906566373 0.016469182261142547
      -0.0017365200942247889 0.0045966391699294364 -0.013472049824078356
      -0.011722945334946935 0.004479481188008904 0.0076151903169748023
      0.002102264645224373 -0.0065099325749019199 -0.004976016287456103
      0.013291468637728163 0.0094135553574749321 0.0024792473671505235
      0.014488723422009478 0.0078763985277512643 0.0038460307790182655
      0.0088896073228226739 -0.0011557127712519299 0.004221983236650453
      -0.012756244465216143 -0.0071695787474139851 -0.012633958753008956
      0.0029938289519935574 -0.0052990147627368809
      -0.0094538556617765664 0.012861440015829026 -0.0091319802434650012
      -0.01147975593285919 -0.011928201398678584 0.021859812347683916
      0.0017977965459513932 0.0043761653288066612 -0.019968661892286063
      0.009752010969415045 0.027858625281137375 0.0011743017988578436
      -0.021263438149108201 0.018999338985689541 -0.005508835795865418
      -0.0072367707328334033 0.013989925495916601 -0.011775950942280422
      -0.010475830876479693 -0.013447366820814292 0.00036571152828878355
      -0.0050657993362569573 -0.001158411423424756
      -0.0082131369050294518 0.00094898447500460644 0.021153627961959385
      0.022006526687508365 -0.011445166632224921 -0.0023139219125552133
      -0.00020973815883298128 0.00016382934942245933
      0.017022512777172323 0.00020003507964105427 0.0070522177826701921
      -0.015882674221531792 0.0092423091021880625 -0.008616507409778297
      -0.010380284913095814 -0.031701752863832748 0.01088503678666548
      0.021418039164569927 -0.0068293484316537967 -0.0037438501556035847
      -0.00292919003818885 -0.012472442222952993 -0.0060163689112628684
      -0.015088942303639667 0.023587556987246405 0.0059506244923827464
      -0.0019828162055019086 -0.022510342200481485 0.0090309856603175837
      -0.004086093249356759 0.017638136868880175 -0.00016254290994834533
      -0.024693284753108103 -0.0030328313983913795 0.015866155540728052
      0.00080431964852849312 0.017035535439365264 -0.0046010030994284336
      -0.0058667990069500766 0.029815635147733218 0.018892043355871975
      -0.018551500728942051 -0.048840311148213057 0.021290910616898209
      0.0098841487880669682 0.040843470275965403 -0.0047197046457077337
      -0.038446119717509011 -0.0049902384323102884 0.028423982570749157
      -0.030309596881318474 0.0023951796212038599 0.010042554744859119
      0.004484067661564793 -0.0046926810230218238 -0.013084667222498505
      -0.014421543650566778 -0.0015941442418210591
      -0.0040362979444256517 0.001759720770217422 6.7829605535029986e-05
      -0.0059020444546844224 -0.0097439701361497107
      0.0027954928278901355 -0.014919681879975954 -0.0095996769130978436
      0.011460629201398603 -0.0073632595252180588 -0.01037596465136382
      0.00485401492710562 -0.0091697501807703231 0.0027585539225772207
      -0.021076670096836857 0.014839130317229275 -0.00063799870541989836
      -0.002938373923958593 0.003073654341657826 -0.00013042353536193342
      -0.016019143164161136 0.0085215171933617165 0.008458867441467106
      -0.0087543839859763536 -0.0031783625220034215
      0.0042741987621407497 -0.010319118307888982
      -0.00043370606840549314 0.012494246296655727
      -0.0027172073123619372 0.01125742113609104 -0.0075652043512233489
      -0.0044585758888323855 0.0076991945165489576 0.0050276377992751389
      -0.0066183469969614455 0.0027093881974803069
      -0.0081524160936231032 0.001160389501054563 -0.011391241339987973
      0.0099990984905002842 -0.010442289465361547 0.011122758865292327
      -0.011166984114085685 0.0084334958705539285 -0.016662919852723737
      0.016189297957929276 -0.011407653809364227 0.0073301539198199076
      -0.0096753884464579817 -0.012370385313753781 0.0050886937931135809
      0.0098867489772739379 0.016289427179436829 0.010751371106455465
      -0.0066379693041870589 -0.013815676063691123
      -0.0039400630071875723 0.014570551829963231 0.011443753305392631
      -0.0044684445340439829 -0.017281863714725065 -0.024060029785560065
      0.0078470368128031841 0.015799907162291016 0.00012427291356343614
      -0.019430717706610215 0.021294353849500576 0.00086487095785353922
      -0.012839523958426545 -0.011130375782713229 -0.0066767859983957864
      0.0012907854874583847 0.0059488605134024901 -0.0037331098685806081
      0.010251920298068009 -0.0010324018540921374 0.011180653770725456
      -0.0093251094678979182 -0.016136970214576267
      -0.0098435627055544501 0.023919687768083429 -0.010075838923564992
      -0.00085604758050325004 -0.011921150724814505
      0.0077376395859181111 -0.007785552383354666 0.0087432767162270806
      0.0020780923563604014 -0.0070336719500725068 0.017359524335456837
      0.0067229936403836073 0.013418799386525524 0.010054701419125582
      -0.012396073923303268 0.0081451741949405514 0.016828928761699492
      0.014082769618461756 0.0021942216092748165 -0.013259568119367106
      -0.010431118830075133 0.022987594998861532 0.01775340615127283
      0.0013810547179549115 -0.025814359352540082 0.0038041659096611771
      0.015832443870645495 0.017464030176557933 0.0053001918503547312
      -0.018651061524617676 -0.0072157169695790382 0.015915578192943237
      -0.019108864958484892 0.014040997312558519 0.011967862692651092
      -0.014840546583590082 0.026403099877034146 0.0024637642633402288
      -0.00067318712160956433 -0.049209229085829302 0.02375486953005276
      0.0093963400633636819 0.040465643387199726 0.0093150950903387094
      -0.029558702389925209 -0.031388437947652767 0.036604774492387193
      -0.022780470092931101 -0.0069543970547641326 -0.012069903074973912
      -0.0026497272396875248 0.031236070832209757 -0.0091238175983369748
      -0.018518000110927808 -0.02377986549809883 -0.00053479085636525306
      0.032480997674180959 0.03100275079921843 0.018674387748227637
      -0.021644923757253638 -0.0078542917082616223 0.020561969446222995
      -0.012139933133088216 0.017189716363974511 -0.012010437360114827
      0.0036778809030847378 0.013871101658617581 0.010090553647344505
      -0.010036531848775121 -0.014185117693355939 -0.007734948259566941
      0.00097610562019614792 0.0088744076746739009 0.0012077781580803648
      -0.00043973767543316019 -0.026307080960340047
      0.0062768883717412381 -0.012447738082648973 -0.0071206387484133967
      0.0071711197377123202 -0.017067686242139068 0.006629044418726822
      -0.0052264703232720467 0.0063189831012647234 -0.026935921279189319
      0.0035746554531668829 0.0025851297294420122 0.046720377936114929
      0.0027022764852732222 -0.020085062345557958 -0.01454939168205356
      0.033571490509110631 -0.028018440005979795 0.018594242940821005
      -0.0023130327624501187 -0.0029736897598955261 0.029094417527673371
      0.011994958143707539 -0.011938420658800386 -0.036066729854812338
      0.00038660089270719844 0.026619267410142897 0.055647100687382565
      0.026053141414459906 -0.021449632312982359 -0.011543586404212757
      0.036006060183889667 -0.0071601332120174426 -0.0019728905608879361
      0.0060546389831801104 0.0069601202217023416 0.0038419793391552296
      -0.0076275606340821854 0.0010347321087336367
      -0.0095613065311818436 -0.011922335376842017 0.017415600123560349
      0.013527721073993807 0.0059854031733799487 -0.011157178408693473
      -0.0069482117135791343 0.024970726506857163 -0.016306602658900413
      0.0040418377340732522 0.001033032252118157 0.0041949358551058259
      0.002482989649181153 0.010283099692695143 0.0012205564833567357
      0.022688301785781281 -0.0072833566947497702 -0.0001531577756919616
      -0.021670034796525985 -0.0029407948103609073
      -0.00012840765781782254 -0.0090133687047782712
      -0.017017607023332181 0.010252213703376324 -0.0090806170361168795
      -0.012278396490243123 -0.006892384453083821 0.010478169057191246
      -0.0021222477089771789 -0.0031361648038693512
      -0.013588759582693358 -0.0094546344315614185 0.011491789058471121
      0.0068537431372671298 0.010241834176441918 0.010459174422065828
      -0.0039355442618432103 0.0010776343078271629 0.012009695213474256
      0.0026866724919276256 -0.0073368078998052476 -0.014232214287652202
      0.0078971460984644942 0.012065433651119737 -0.01084321109927064
      -0.0068909893164508622 -0.00056059755689212727
      0.0020613262548374047 0.006128874614430224 0.020853889147724701
      -0.012153965224942869 -0.007436706642968363 0.025064489254550751
      0.0055013784412400049 0.0040569318860339326 0.011537040291620495
      0.020933646973895832 -0.015155934264732426 0.0038707676207029589
      -0.0067496328462522378 0.01545100240351735 -0.0060266888094041068
      0.0028793318345889979 -0.017467856666417713 0.0024519467031946149
      0.011397158197943917 0.011080524058455752 -0.032617809819480592
      0.0080730634575407918 -0.0079421537505058541 0.0058603912450100838
      0.0022520858810104964 -0.025472911955876927 0.011598407439341714
      0.013467493218749875 0.033489034423845591 -0.017070024929019167
      -0.021253375716122395 -0.02838338302838481 0.0088773870229504545
      0.028484285257624205 0.016198159249424034 -0.0092230331307970193
      0.0032485747342448868 -0.0079170931271432439 0.010007214034771813
      -0.011585999726171739 0.0030965165899012035 0.013912745957683416
      -0.0008941548783834095 0.0030893476319236489 0.012056245529513673
      0.01783582897379064 -0.0042217107653588553 -0.0036990942743604428
      -0.0042764706066755849 0.0052401522021233845 0.0099288712007249442
      0.0034644237797741601 0.014661662586600267 -0.013622700648378835
      0.010777932424347341 -0.018406395110200958 -0.012904424579511901
      0.01356888983227556 -0.0052461291805671606 -0.0032409936382885168
      0.0067281292969846637 0.0034369673867057984 -0.0086077815245421737
      0.022191802547741255 -0.0086124690246704143 -0.010211427173856868
      -0.0052910149751345436 -0.015802615045197893 -0.01351012232904197
      -0.012598279648395107 -0.013342777859389225 -0.0089273294483146592
      -0.0059022070283825277 0.018854492984390663 -0.017714915759109318
      -0.012303739950895376 -0.015706432239291926 0.011990000236265603
      -0.0052360237936620807 0.017534794250690568 0.0044877682216367979
      0.0068503700429355212 -0.0043209001302047315 0.0025733560277379792
      0.0077753155353495421 -0.0092809933249599665 0.001825023288321541
      -0.012618050424476066 -0.021218045221548708 0.014830135929858016
      -0.0063805033226426305 0.014155768244242193 0.014502337946532719
      -0.0085714928477634792 -0.013271635461608706 0.0053474520178598012
      0.010770018182634738 0.00013713000041756801 0.0060797914444628131
      0.011344323296972533 -0.0027918811922812373 -0.013466193344962319
      -0.0014190638195536931 0.021028210156866366 0.0095256281805286037
      -0.0066290326294671433 0.00046560920320986822 0.007747289923441255
      -0.0088834457924020314 -0.0042296773508605995
      -0.018627238567078368 0.012951578856981847 -0.014311316508730252
      -0.015302855627903877 0.0010071195247422693 -0.0050862968662993063
      -0.00073277359817677215 0.0080712657441364081 0.015780782560210697
      -0.0059171892713021958 -0.018095397159086164 -0.021221746362959905
      0.0025564209965092143 -0.0020681358135317502 -0.012477490863861178
      0.004939971248233547 0.016819959401572205 0.011622772604044157
      0.012949562505618356 0.018228810317726798 -0.026041346950870108
      -0.010828798138688669 0.0010413947581014978 0.041638786676433816
      0.012049914768095367 -0.00099082589282760273 -0.035129081816479078
      -0.0060794492151697967 0.0084103784665766172 0.019539150884881271
      -0.029891105083696752 -0.0018508339140686583
      -0.0067835173684541164 -0.0034917812695683726 0.012796051962523829
      0.0073767252721479463 -0.0060234830247196522 -0.012827069047268816
      0.0098159513201334127 -0.0042128776837399929
      -0.0068904413296149956 0.01150359146293811 -0.004485468835130413
      0.0092100042351533785 -0.0009205579761406926 0.01041249782985457
      0.0047719016107718873 -0.0067958137171795167 -0.013138782979937884
      0.0090850455878136796 -0.011466379779343278 0.0033793348834250921
      0.0071600731763294531 0.01801119711867007 0.0048828503208167996
      -0.020231703522658451 -0.033259621728505842 -0.0044001397515216157
      0.023964794093908132 0.0048861809867430193 -0.023221779919973155
      0.024965573978425269 0.01269465317842363 0.0053814241113744801
      -0.0036219496123062666 -0.0026016163060298947
      0.0040196871622341411 0.017156993864824659 -0.013264439634355181
      -0.015692834178293358 -0.0087223460561461266 0.0081751965272415846
      0.0038061021990708345 0.0069897021818129948 -0.0022656629186711776
      -0.002318049979764915 -0.013604587109660483 0.014854236832538821
      0.0068837754966738548 0.0028411514613027188 0.0051394052097712244
      0.013093554438242163 0.012633709182824375 0.020028008047138585
      -0.0043964396293352317 -0.0013609207265464825
      -0.0079509495698664567 -0.01148502853267702 -0.0028308199488356117
      0.0041360502228966764 0.004832797691760521 0.015561660832517504
      0.0081440199247917334 -0.0052993483092981892 0.011313327900160474
      4.4060914844064166e-05 0.00071427973612440293
      0.0078690128096727732 0.0184468036055619 0.011458493962313864
      -0.011832950936752816 -0.0095681395556683081
      -0.0018023267280438072 0.016220309677943148 -0.00302803354579969
      -0.0060043186829792311 -0.0093444069200302165
      0.0045937982512615034 0.0093443353581846578 -0.0030983981832975178
      0.00032352738339523645 -0.0090193284127366175
      -0.0081365849371796937 -0.018929987339609607 0.0017654247471841516
      -0.011678617385888854 -0.0012719330579598976
      -0.0093545391998715831 -0.0067253273346485412
      -0.0082129325869958573 -0.004057279917189187
      -0.0087696319669105967 0.0011100821056014237
      -0.0017347118936032768 -0.0038199675646972044
      -0.026939304999956278 -0.01230733602817391 0.016379128238835607
      0.038176352244004307 -0.0037187185488333423 -0.012803895037582967
      -0.048779309015446144 0.0045401823859814953 0.021120825794817971
      0.020646025087070568 -0.016323579832423753 0.014989793574663578
      -0.016439986668386836 0.00334032991587753 -0.0093834633459076982
      0.019963424644033102 0.010677200390360483 -0.014156868774872121
      -0.011621025149100756 0.018422922101204664 0.0020090273767030486
      0.0012514975155319341 0.018972422690080745 -0.01680888418969723
      0.00082473937402687057 0.02385752240664419 -0.0023562785958503676
      0.011736037568238104 -0.015873186076782966 0.0058396545922462136
      0.0072910750816492795 -0.013772665333338352 0.00065828224304702841
      -0.034321181141033323 -0.0016624360537149056 0.010760076747552413
      0.013939378477179 -0.0040861190331278078 -0.029223866185732476
      0.0050265826655674882 0.0078693147191110299 0.0022567262927043765
      -0.0040050897543766652 -0.003232705575181963
      -0.0022644072320030925 0.0041818949482093472 0.0026726846495227869
      0.0064289845901877229 0.0042784928253398339 -0.0083369873148114743
      0.0063637461465330062 -0.0065428044030493085
      0.00087610526860563932 0.013155774897502415 0.0037541270587783814
      0.01366165994112545 -0.00021700713241353038 -0.014066351512115553
      -0.002440882383636803 -0.011575174134141336 -0.024570114600609299
      -0.0073460034439885467 -0.012473378958044009 0.019417965715914091
      -0.0085685009837668923 0.0054385566607592717
      0.00098327959523237824 -0.012238927885439082
      -0.0085852988463922184 0.0060065723030071185 -0.020677921847537084
      -0.0046154961401369977 0.0094037734709212506
      -0.0058759493271872531 0.01072169605334561 -0.017104535859688044
      -0.0092674012416475819 -0.004656025896747254 0.028103253101220572
      -0.0069803627148004466 -0.0038687999857316335
      -0.027317641920742604 -0.018230670231490696 0.018693750106019508
      -0.002678388497213669 -0.024796525653558821 0.0070436249370348205
      0.00059887557184592035 0.012323196508476785 0.01111890247560884
      -0.0061869967275368868 -0.010167821090536053
      -0.0057020528145106247 0.018236112877229805 0.0074793585021214228
      0.001096639894079621 0.00056980567370462708 -0.011435379648389728
      0.012502515430021734 0.0017116285836179404 0.0010727799704502838
      0.00849796796815812 -0.013919413575590386 0.0044210840357720204
      0.01536754538334914 -0.0031077319154490246 0.015037279290934251
      -0.013355264167188536 -0.0059821475792987177 0.0089749131664277563
      -0.0060409602577709137 0.0080684389895292093
      -0.0021150385357476533 0.016805010224670732 -0.010392036016697387
      0.003585853667964896 -0.0031535288610366938 0.014048674394100225
      0.0097486765623163198 0.01052843959575215 -0.014459504512137528
      -0.0013398271200298812 0.0041697571536309383 0.03046253270829492
      -0.015016368828111217 -0.015581652330873672 -0.030077768883397339
      -0.0080707052270386631 0.039011194599434112 0.0040551299334338695
      -0.041034949746753244 0.015822215027321118 -0.013531545432847609
      -0.0093692788187499064 0.003801617599492599 0.0098902515193762773
      -0.0047985869184578528 0.00028610412231434959
      0.0045350439830795725 -0.0015081687890516643 0.0074645389594387886
      -0.021669849381532828 -0.0030391442560247822 0.0064161464721857065
      0.019971462083337815 0.0002572442676547933 0.011854756767336943
      -0.0071020832487909405 -0.0055476292523010205
      0.0037732372590551797 -0.01670331357094022 -0.0056999353903421134
      -0.0043747350725794679 0.01873495866061475 -0.013632262643207584
      -0.0068239669152813653 -0.024772951178764251 0.0106183220013411
      0.021104510908008491 0.0068666601254716991 -0.012205726174503436
      0.010533420486832364 -0.011909018091449685 0.00022167315097800091
      -0.002445133482971006 -0.012412288026566753 0.0051409228464072343
      -0.0082324555793995245 -0.00045831985970931139
      -0.00075134278818982157 -0.0057239321656926065
      0.0058059831402221427 0.0033923097264835058 -0.0011979399384837402
      0.0077423106508842966 -0.0009464619700643419 0.014807803511503475
      0.0080845173309738814 -0.0067236647773664922 0.012562729929104722
      0.009901855084870112 -0.0070497201091823782 -0.0073560696876123427
      -0.012864483209188707 -0.00058464900741668144
      -0.0025247783402326572 0.0005211668893301952 0.0079513400851230261
      0.016896093668082989 0.016181961925879493 0.01365207383408914
      -0.014733596864463343 0.0012818689811851173 -0.0099910685106929815
      -0.0056799878351667509 -0.0047254696725940832
      -0.015219830626876851 -0.0022615418668624613 0.022659515377406982
      -0.0017157028759806966 -0.024476782210312544 -0.036327639391940857
      -0.010394141348385764 0.017906437328181625 -0.0029567437125868172
      -0.030544726122460918 0.00021996068112618754
      -0.0024606582367558451 0.013093259908930665 0.028684954712530228
      -0.034003633614120066 -0.0023693879807433734 0.019110689782092571
      0.050014015218188095 -0.0011606092525134415 -0.018034142508268607
      -0.04638460629333039 -0.0056970005720124745 0.040632060322417979
      0.04120129057260135 -0.045239159000503279 0.038976925147984412
      -0.0001840972632357305 -0.010063202453129885 -0.011376078441940978
      0.0079918268521247133 -0.0014415359325693248
      0.00041221525212696011 0.00061025636386220078
      -0.0066971773940126163 0.005088586509290712 -0.0069959378285350338
      0.0094570235742991848 -0.001887020155690058 -0.014631827583965685
      -0.0012056370531585109 -0.0013839634270667069
      -0.015702202547232126 0.0080064414380410145 0.0045164971996179432
      0.031186593890624399 0.012700656010592185 -0.011451793943310218
      -0.026314632166195048 0.01557106996028537 -0.0022196188291333943
      0.021364038498131222 0.016242767258692462 -0.0053296041674163012
      -0.024484916496564112 0.03603553387098677 -0.0088160128070871903
      0.0022535614294875998 -0.0098252155777909331
      -0.0025846452306840812 0.030196578441182953 -0.0015953383720712748
      -0.0061900841294739647 -0.048375294162669093 0.019089801471850715
      0.026771143157842996 0.041972541993532328 0.024836331241146422
      -0.029032111677323232 -0.030416399398635288 0.036756120275594939
      0.00080311959223846837 0.0051245250787697767 -0.009134102711527519
      -0.016971421644730339 0.045034499821681222 -0.0036688896771148722
      -0.018529589703149347 -0.040320484176260732 0.0092134425185105302
      0.025657153858043298 0.064782007457917373 0.004645935231804032
      -0.026246438880867754 -0.017232638680051385 0.036869226045788746
      -0.026830415228615016 -0.0068348666420838472 -0.010703227555519591
      -0.038490637320345918 0.035298556964293938 0.021170222324222804
      -0.0022758491313322627 -0.048293259342686197
      -0.0018718067751522505 0.032631897955256471 0.045772418155468404
      0.001258390932905223 -0.05186943524165976 -0.033735118467708061
      0.043042958065932349 -0.023859120606531253 0.0024150894829740328
      0.010042044339768285 -0.016241337165876894 -0.014867732145248551
      0.0068873828340403247 0.0026831564300928644 0.00760126632455953
      0.00099074901515828584 -0.0061465148647269364
      0.0012008204991258659 -0.0091053261597911946
      -0.0080651723289137493 -0.00054264509927106849
      0.0086541659465182563 -0.0070483687134869129 -0.01233986718578798
      -0.0082319418517629757 0.024832119010428151 0.0046689739575883245
      0.010661418574327711 0.017867802900352198 0.032525287878906843
      0.0064062828103859139 -0.021641649819975069 -0.0072678647401167593
      0.002941174005877486 0.01230351123284406 0.0069355421904076023
      -0.014235825111778519 0.017906456148989065 0.0092676778223883642
      -0.0083919404525749502 0.016625013809966699 -0.0016818821446936594
      -0.013578571180710316 -0.0030895443105718088 0.020730910168623419
      -0.00026730824254639059 0.0018812023695445022
      -0.017550328857075199 -0.019266748927377845 0.024243794390136984
      0.023610097462882652 -0.016095481675679896 0.023682931897791852
      0.010941146188598941 0.00075245408299102687 0.0057720286480407697
      -0.022240666480927897 0.00090362452683201866 -0.012880173480105308
      0.0084065085738125114 -0.013450450773296993 -0.010601758173027527
      -0.0054486214051831152 0.0012723950319641862 0.0093167365673931021
      -0.0015840759846493014 0.0051948814864442357 -0.011939741183830193
      0.0086136579369232667 0.0051159405356994269 0.0032674828685982185
      0.021419171968013864 -0.00084079674305017748
      -0.0066600578370333754 -0.00097458484290664912
      0.013174554541677657 0.01105860538908396 0.0048538474966946131
      -0.0010753462578622422 -0.011132102824515891 0.0053377017686773521
      0.026147311220177279 -0.01991529677792063 0.0069980248095353028
      -0.0071063035306060058 0.0052906119365004368 0.008599127004204404
      -0.011814263184577383 -0.00056579622710267198
      0.0018344394366748807 -9.7604785193775216e-05
      0.0057565554158249396 0.015017702688219094 -0.010543257763321292
      0.0074002341342279017 0.012880678823198433 -5.4535518809033873e-05
      0.010229505604909138 -0.012553137230852038 0.0052946768911382386
      0.0081076490304431981 0.011100590949449957 -0.015320107474752591
      0.0014983168948621841 -0.0051738490311563643 0.0086156486530906198
      0.016092967665024448 0.026160550231666472 0.01850164937116797
      -0.012958031681443456 -0.0092168685980611002
      -0.0096449344823744711 0.00068544686233339082
      -0.0032086597544480062 0.0025496550766573563 -0.004098627229633214
      0.020901876614703076 0.0094352807501085541 -0.0016679593399404028
      -0.030536524465650857 -0.0010097008848950486 0.012117596454493269
      0.046138748742229195 0.0055465880615007948 -0.032829743307466568
      -0.0030631713822667607 0.015697009090379365 -0.016782809345809613
      0.01676572480839067 -0.012424939323314323 -0.011167160939145838
      0.013036807629938592 -0.0019870552351519744 0.0091370421739775803
      0.0039779676423145494 0.017202132006875332 0.0059005005617325688
      0.023950675047257092 -0.0026313950901097642 -0.02071552610807478
      0.0036222135532195522 0.0074672536637473809 -0.0054388706912134885
      0.016406838732834016 -0.0090705093030530783 -0.0014134988445621687
      0.017171649904582063 0.006157374134044824 0.0062411954352546697
      -0.014390133294896554 -0.0031998096080713963 0.0041625550418141633
      0.022418553214799859 0.011553293729769451 -0.012539584602900335
      -0.012397138208791245 0.008205951825188568 -0.0072904393704002644
      0.015080832120922155 -0.0021802526005582426 -0.013779951833911038
      0.00024417754122718041 0.0186342679575459 0.0076594359506306888
      -0.045129861490258542 0.00098581483432793682 0.026524072791558627
      0.024007743214480071 -0.0065171909753896848 -0.025465892120338507
      -0.0017068879103062254 0.0056975706529927171 -0.026729710658375382
      -0.0091328568939898491 -0.0043424738954304211
      -0.014315578628707599 0.0084164183163407957 0.021389809505561772
      -0.011366434355218587 -0.053613846307794095 0.014002182711086964
      0.025365322638434887 0.052194256399856941 0.013930911648610435
      -0.037816621161838954 -0.0074892853724548352 0.021879033721423743
      -0.01518441143146362 0.0060897404877140165 -0.009781284645179791
      -0.018559147101782931 0.0098340975284769601 0.0016347684942310742
      -0.01415908812281079 -0.018255112463620434 0.019204242485308658
      -0.0040522515514862627 0.032911776015065862 0.00081275083529819725
      -0.020532914939861299 -0.0098856279911849528
      -0.0050877598323748816 -0.012162534369835779 -0.011830180061302632
      -0.0076110526247488708 0.0043251880946201778 -0.012246616680597809
      0.010366158806847405 0.010594856137543296 0.03252634548649902
      -0.00075608207277209254 -0.01973848599800293 -0.040539351598960126
      -0.0045097842747240813 0.0035421450810011988 0.023460755403998279
      -0.018022760983706834 0.0079861463027130139 0.0047528056209731632
      0.012908792553258795 -0.0043346028088446995 -0.018611102816461708
      0.0074180793182967459 -0.0058121699877602883 0.0073653075835816602
      -0.013750418457272588 -0.018331281297488407 -0.0039259206873506263
      0.010210537620111775 0.0057920283555329749 -0.0094551591598268075
      -0.016666465676140697 0.010649033522235339 -0.0072781547190285643
      -0.0016766183191749544 0.0017728944203464032
      -0.0018736098393827272 0.013351037954669751 0.01192339710630321
      -0.0020389254790500978 -0.0081561398589065776
      -0.010108497231136925 0.00039511174376563482 0.011820643839824835
      0.012403376873897103 0.0010009578265477753 -0.015968071200939498
      -0.0070133433182084067 -0.0074170068628057412
      -0.0060820058525066275 0.01004414895233299 -0.024391941317414137
      -0.018638072789394545 0.0010956161635705334 0.033848882049997663
      -0.005226373602600541 -0.0096786160449793008 -0.017659498590275137
      -0.021813228188894716 0.022609869861832735 0.022548852775815465
      -0.012165436670262993 0.016435556151009237 -0.0090985132620350975
      -0.0041616903752088189 -0.0083559217651055142
      -0.019808077164758148 0.011028235554210385 0.015286645558014116
      -0.00069073988066682701 -0.011426728883588502
      -0.002215396868733845 -0.00095615828669690832
      -0.017714122190391417 0.016932167233182777 0.017324633322460738
      -0.013448610449184878 0.0070696942221930943 0.01611086414035405
      -0.0087546269440174906 0.0006509480503186641
      -0.0029613200930754496 -0.0014398448136657028
      0.0054026465733169934 0.0061356781025590666 0.013002428442113299
      -0.015443337466293989 0.0094155977475479657 -0.004914245196304538
      -0.00054982583188479455 0.013078117327707868 0.0048454988773118041
      0.011821787601513877 -0.0077663970323556698 0.0067699030571318807
      0.014657676915194637 0.0064572793690560624 -0.005880239993261518
      0.013937119748586772 0.006085147652192791 0.012199571499605034
      0.0043122836067768285 0.0013703106398221358 -0.0011066270603056359
      -0.016546618286383166 -0.0092790796772783922 0.0048178404370061529
      -0.0024834463629558158 0.016513073487396061 -0.011059737718520164
      -0.0025052608370238422 0.01444405745442532 0.0096407363136835605
      -0.0022889918269894229 -0.00013487340232592657
      -0.015305070182251346 0.0085022071125152796 0.01045635353766014
      -0.0073610393258145583 -0.020272846204214635
      0.00058900112041703726 0.00010568580892136087
      0.0015621836962734247 0.0064043161962490545 -0.003385285451813829
      -0.017519157131312038 0.0067896350077395378 0.015569393576524815
      -0.007818480963917001 0.0022574732496453797 -0.015691956610500289
      0.0069678013855733155 0.01028305132895305 0.005917193965590835
      -0.00032305337784527987 -0.012928182920849842 0.012506683557744357
      -0.012386998741885841 -0.0038045351923001259
      -0.0040288955797932345 0.0048337596967888896 0.011567944054190161
      0.0015939330345294052 -0.0011155473115121509
      -0.0086974475898455774 -0.015423023046757292 0.011095584863430701
      -0.0075655520172362755 0.0025330017636122069 -0.012346281305649307
      -0.0077849253102341498 0.0058376100803660177
      -0.0036870376284123675 0.0042238532372287146
      -0.0055950614197221478 -0.011168721681060855 0.0028749927416147633
      -0.011194421940589977 0.01225328240458283 0.0052450359859522551
      0.0054619166599085339 -0.02041616133599173 -0.017125225067953449
      -0.013091457317628417 0.0042878369034026441 0.0093459104511067186
      -0.017719189286447584 0.020261308521214754 0.0061733899670157856
      -0.0057618888376708803 -0.015222989964384006 0.0068817350821874495
      -0.015479053158140384 0.0074647453525437798 0.015250663436500007
      -0.015367325442305785 0.0097496179950657541 -0.01403376916920189
      0.0041245386510383782 0.013012240586032921 -0.00061277560544980647
      0.0021051586748398626 -0.0020341274533560339
      -0.0093373437721542291 0.008805979960500105 0.012585814967614913
      -0.018594688413915119 -0.0043909083217306202 -0.011231559607333304
      0.0048026524754511699 0.005240769035537449 -0.015384351794531582
      -0.021278532892593082 0.012754821834174047 -0.0079195576722611814
      0.00087859062031413377 0.011937471510131853 -0.0045384559663939695
      0.010211911864811714 0.0051245733530328732 0.016538394676994656
      -0.0080351559358971814 0.012830802601806685 -0.0089407108667197231
      0.018863379928984347 0.0091682288890921251 0.0071862031756160924
      -0.0060098133922558894 -0.019037312595759772 0.0077155689394829722
      -0.0047456293881250446 -0.023668294542100874 0.012664225566641143
      -0.0030310636005487406 0.0055112295335805125 0.01552845837328007
      -0.00071114042018459022 -0.01591967428738638 0.0011092348249025956
      0.036398828756440002 -0.018852563255895557 -0.015706079932809452
      -0.039339400714790189 0.0092099142102964864 0.0077805919862319762
      0.0055922949590658019 -0.013327868905469109 0.0075435995282882567
      -0.0065450386428187743 0.0093122264472205001 0.02064061568524328
      0.0032233378828916918 0.0045792415889321552 0.0059791056517232008
      0.023412614325511647 0.0056498204841114452 -0.020791009564335432
      -0.040352982045314706 -0.021973337609685638 0.027152255232737347
      0.012125331509281025 -0.015786318830127818 0.0094680611589812221
      -0.012329690800711673 0.015816104083899392 0.0019228721777561982
      -0.016098705895471067 -0.0066576708454857544 0.014512925577559959
      0.041871415772853901 -0.013076074580285632 -0.0047703451321352754
      -0.042402765895576643 0.0016152928718835655 0.029078229444869808
      0.017323040983138006 -0.010424004363150111 0.00384784311917955
      0.0038218417447406236 0.0092801479427000507 0.015670918477546907
      -0.01363884601947838 -0.0053367507223141715 0.0087476298206463996
      0.029691712089950584 -0.014989736955515826 -0.0090023532687760234
      -0.027780198627076483 -0.010526499926546322 0.028757765167763728
      0.01236116019239176 -0.022864069742690653 -5.9345976340223236e-05
      0.0062744914964672042 0.007374656178558414 0.016035376221325174
      -0.015053353639855192 0.0039745870395231243 0.0055078744758537629
      0.033562474385420552 0.0039384733792665622 0.0005398394716523196
      -0.04221530237575212 -0.020487880499572859 0.014006598654250833
      0.026774563228495162 -0.02230919877707567 0.023870578623775243
      -0.013142193262804948 -0.009132153314138353 0.024077202164448672
      0.001225838503078641 -0.0018968610319459885 0.018179681669870752
      0.024712002588345328 -0.0023957475369511512 -0.014026430652487631
      -0.019817240664599868 -0.0020674831641278191 0.0093388084613060564
      0.017636301243655013 -0.022867122474070266 0.0017212352480873111
      -0.0057138868205531572 -0.01291922207452998 -0.004636020353723294
      -0.016925288121095939 -0.01551038486309452 -0.015128521165861534
      0.019909507386581458 0.0020799504569580444 -0.016887784020975054
      -0.012074830244827381 0.01101506939759867 -0.010050430781566477
      -0.010635054306287988 0.0094787380718026806 -0.0002306455091051575
      -0.0098269482277476752 -0.0024414127182697883
      -0.014853330754178107 0.0029109529769196542 -0.010219033416657837
      0.010610507559467779 0.019192709732348399 -0.010714072204858821
      0.0048754881915441719 0.0052824705788080007 -0.013926587298224047
      0.01197678912783471 0.010014581311638666 0.0058697277907925425
      0.0071301933446522199 0.0087458923330341574 0.0033471585769635631
      0.001044388984566989 -0.012167315094092418 -0.014771691859055603
      -0.0016144435915032669 -0.010864263831654317 -0.012839087969579773
      0.010790376571145904 -0.010838583358480846 0.0058680335084282083
      0.0084973125592170181 0.010817699454817342 -0.0070944653818409888
      -0.00032630246278583265 0.0136200019635102 0.0011503250867174893
      0.0013920380466120317 -0.013941225669618734 0.0054701226086188732
      0.0032079283064622112 -0.015773681834142489 -0.0093754263695561609
      0.0036745326672589116 0.0028718250872566608 -0.0029514615160266774
      0.010199602353611784 0.0060392118948001229 0.014386660084220002
      0.0078162563724047847 -0.015429624896599773 0.01235028791879534
      -0.011086262234532688 -0.0092493624158920887
      -8.2585877847641702e-05 -0.0071694769076109154
      0.0049930955917853763 -0.0068435696631489722 0.0094005031539961606
      -0.018053504568255861 -0.0020227128245509196 0.001858957028057037
      0.011026714492253524 -0.015674610345422949 -0.0064482748041925705
      -0.0037716105745755832 0.014697944566935019 0.017071651924446735
      0.003097633138121527 -0.011160673003752553 0.014125118984073166
      0.005527682886892156 0.0059176564900106218 -0.014863542406658046
      -0.030284907831060651 -0.0020969573771375026 0.024849176812399298
      -0.0031324467212246456 -0.026473504006465434 0.00240778571410769
      0.0042433161426340734 0.011445444155710456 0.0043219429771015061
      0.010975079686056679 -0.015917589669142418 -0.0074404324852326859
      0.009989124949485912 -0.0075322527618170258 0.010278875028496347
      -0.004639183517364389 0.0072169632999998538 0.018721483161140036
      0.0070191232365581467 -0.0030406115602658007
      -0.0037629438727831825 -0.0022959597961197467
      -0.0050730485682760505 -0.00082661133999768462
      0.0066875823543338445 0.011118456071937967 0.011492466179252616
      0.017696722559182688 -0.011344229482095305 -0.00061762812060156829
      -0.036277045238739751 0.010500461059830312 0.0052740492450436332
      0.00012356702877158236 -0.0059564485836663787 0.011164131335360369
      0.012021937457348409 0.011248578348963716 0.014738494314870731
      0.0090640077941899107 -0.0066625213102999336 -0.004669409064358576
      0.0044284568482261307 -0.0057752704930986243 0.0093069627035038942
      -0.0075148327757423982 0.01050803115120324 -0.00053357174973909908
      0.015943904856939101 -0.010665653064076642 -0.0043092020165134241
      -0.0013255456740584848 0.004908370953727292 -0.017595086239015147
      0.00034034061378183532 -0.0096716017734122858
      -0.0062195163471668391 -0.018504528264884058 -0.012494977473035065
      0.020823461427016205 0.023915861728405586 -0.00059855222942839113
      -0.029397382816151334 0.0035183480914842977 0.020983247432449934
      -0.0042448274710093587 0.016192752882059642 -0.002811328896210448
      -0.015183872037134834 -0.0017174616805205986 0.016466129052459613
      0.00067721060096906838 -0.0094807286985963343
      -0.0072894375320025099 -0.0045833357540754549 0.024666590135847988
      0.017734109932170762 -0.013296778988838607 0.0033850585609023717
      0.012062870752459405 -0.015749830314740303 0.015697390929991329
      0.0077431296596048669 -0.0046439127306797693 0.0078892368812454247
      0.0063110786057841055 -0.0068746528632613237 -0.013523159831257936
      -0.00026081660684333695 0.016291606073759062 0.022843669700268486
      0.0071205583619145339 -0.00148340269317287 -0.017300169651160654
      0.01224614923598971 0.0044350633513500631 -0.0018134522347193894
      0.0088682864902363007 -0.0032523005281918059
      0.00062270885152013015 -0.011152657124747761 -0.011689127795138355
      -0.004933858505153539 -0.0039402789125971621 0.015726484385406376
      0.010179695474715117 0.0044493518280674148 -0.019418831003332811
      0.0015812537341123379 0.001404139974522801 -0.017558076623097461
      -0.014360107224083088 -0.011757483236016617 0.015506613270389619
      0.0092565585606814282 -0.013705096131966878 0.0095210710053966769
      -0.0022121633926846375 0.0099024703566440234 -0.014395750671416822
      -0.011058216588199757 0.0089051640817550404 0.0021697247978320813
      0.013802055129172104 0.0031570849179290515 -0.0007137651255581304
      0.0060416040179176811 0.010967541571513322 -0.015988460489423501
      0.0070113664702281409 0.0042944729389514553 0.0095455902721670316
      -0.0034754453845715111 -0.0053643299722312722 0.011027150624221214
      0.012694840293718462 0.0010548819100100408 -0.016018208017362572
      -0.006731589368270903 0.013256356406695185 -0.015658722660848591
      -0.0040680114646026696 -0.014083900167644395 -0.10930789006426966
      0.20236518807798032 0.045547703956379762 -0.021034024833642657
      -0.35537340858153393 0.064560029168570635 0.15482765726931566
      0.37245979769636134 0.097081991148745467 -0.26423516219351317
      -0.16640867980513033 0.23038598955760517 -0.17430778312701764
      0.0021162206132042806</_>
    <_>
      0.58814590738112316 0.58246393196429891 -0.11869843802826942
      -0.67784330261788173 -0.47029421143760736 0.38946801075425419
      0.40307939807814963 0.61601798515787687 -0.68913283696466954
      -0.83778121363549785 0.88339162942290916 -0.66177341680505875
      -0.12921247950540876 0.15223902688278729 -0.55747698426928649
      0.10594428354642149 -0.82642457890548016 0.80828277944353322
      -0.25636281716581377 0.1755689783574835 0.43502035481003004
      -0.72967715516179898 0.79957404303413815 0.084188240790489838
      -0.17821641278823616 0.8312202845929838 0.90157434849014351
      0.21719849303509089 0.39094178373154748 0.46155498333054623
      -0.59380736617031227 0.67182832501814116</_></weights></opencv_ml_ann_mlp>
</opencv_storage>
