<?xml version="1.0"?>
<opencv_storage>
<opencv_ml_ann_mlp>
  <format>3</format>
  <layer_sizes>
    120 15 2</layer_sizes>
  <activation_function>SIGMOID_SYM</activation_function>
  <f_param1>0.66666666666666663</f_param1>
  <f_param2>1.7159</f_param2>
  <min_val>-0.94999999999999996</min_val>
  <max_val>0.94999999999999996</max_val>
  <min_val1>-0.97999999999999998</min_val1>
  <max_val1>0.97999999999999998</max_val1>
  <training_params>
    <train_method>BACKPROP</train_method>
    <dw_scale>0.001</dw_scale>
    <moment_scale>0.</moment_scale>
    <term_criteria>
      <epsilon>0.0001</epsilon>
      <iterations>3000</iterations></term_criteria></training_params>
  <input_scale>
    5.1002137097630351 -3.4696075054433746 5.1901997307999181
    -3.5790987608342495 5.3136289278851301 -3.6864677604056002
    5.453983235014098 -3.8097512042918567 5.5525321533646856
    -3.9239893749291408 5.6115681211502206 -3.9850174235009534
    5.5870696582135286 -3.9995160796542404 5.7048268613112985
    -4.0998930597424215 5.7555681324770367 -4.140299521419422
    5.8438471113851245 -4.2094358854296416 5.7635965147079178
    -4.1889402191248957 5.9750143612972719 -4.3837513986239678
    5.938816301827246 -4.3993098822511056 6.2975962762732509
    -4.7140315392541758 6.2393263850072209 -4.7156744909878849
    6.375563975430814 -4.8412532308543668 6.5785136157014357
    -5.02087463079895 6.6382905173644451 -5.1263421169199788
    6.7538635787695496 -5.2661467845305303 6.3482932023230934
    -4.9539265201678795 6.2670921230680037 -4.9119841614933941
    6.2080949182749414 -4.8695227461797463 6.2081979215432801
    -4.9154673389997958 6.1898733282978871 -4.9055560578494903
    6.6548262611921558 -5.3326300020595019 6.7208495521635925
    -5.4329795515848298 6.8798095920886091 -5.6134920454134338
    6.676472429016826 -5.4693406184409445 6.6262899805857405
    -5.4099318104720346 6.7080479103442965 -5.4952145111358641
    6.5982297874447138 -5.3944859741972033 6.6799907005808281
    -5.5117738278145616 6.7632578558815331 -5.6016592363343287
    6.6811927690784287 -5.5527276980274936 6.8052000269593744
    -5.6834886980401667 7.1559246123767819 -6.0144065001715221
    7.2440936014714428 -6.0964096442010218 7.0510450843494148
    -5.9107922512952156 7.0105853139167413 -5.8986874895901273
    7.2362036108259131 -6.1235665536247543 7.4279432602590818
    -6.327353200604259 7.180050430208043 -6.0992644427284359
    7.0190808145248251 -5.9819000501348754 6.9760368571975757
    -5.9393955438727053 7.1338960120840929 -6.1347468075411333
    7.1505658245338699 -6.1554982387782093 7.8144585991648512
    -6.7809858341529328 7.6884892502098694 -6.6668915007649909
    7.6493529353727299 -6.6278389801960893 8.0237479040516302
    -6.9922696534467415 8.2451507984759189 -7.2001134840933219
    8.0922779774783873 -7.0568940542462126 7.8220453151051039
    -6.7680826170386412 7.6971943329346209 -6.711643171804643
    7.7741204328389726 -6.7611622703631067 7.837370747859727
    -6.8142773275793616 8.0388521717487862 -6.9838712253524857
    7.9290502277731276 -6.8877001249292622 8.0376503258103753
    -6.971982279430855 7.9556477081421164 -6.8671214155255766
    7.6009180056729173 -6.5449529315501778 7.8322589139455232
    -6.7885803869123027 8.5528885097203222 -7.4921482757559996
    8.3336047586303881 -7.2320560595233019 7.8493060933016752
    -6.795525198717538 7.7039394509272325 -6.6247295887435484
    7.9229404659397646 -6.784221329916031 7.8270762285646125
    -6.7176750297296 8.281190457929398 -7.1711198177710749
    8.2178920160004676 -7.1340643215429989 8.0994103753096471
    -7.0251971711460861 8.0999884388438002 -7.0049203065647552
    7.7208161724612649 -6.6012148236987001 7.6105934837200584
    -6.4785937409745262 7.2782608989652031 -6.1491258187580469
    7.1449474317288191 -5.9809843906677891 7.1078282257360295
    -5.9336345731446185 7.0841865806481596 -5.8842746515982762
    7.0710254736072429 -5.8723899603865979 7.206455190632032
    -6.0097258462696423 7.3304104421732674 -6.0833106451754135
    6.9193629452292837 -5.6955951996404997 7.0600102268065053
    -5.8049513277253046 7.2424652473108946 -5.9491804826396519
    7.1512669835400287 -5.8387575862099022 6.993718392480881
    -5.6579186389587912 6.9337754354224233 -5.5866896516868598
    7.039836132861633 -5.6777936294010489 6.9167912186695668
    -5.5610279519278123 6.8098819891268176 -5.4581936940593874
    6.9797494262135524 -5.6165630749549109 6.7065822145757288
    -5.3726754746841454 6.7804788587719829 -5.3876853144536296
    6.8009653040881419 -5.3842928423638723 6.8807402413479428
    -5.4144970642132497 6.8533141503849127 -5.3829203645390855
    6.731072305914628 -5.2567409660713134 6.6055771870105922
    -5.1201783163139201 6.5105897767000132 -5.0213866153419442
    6.5338497374955313 -4.992997721584544 6.3489036851549931
    -4.8446947337554098 6.3294997515928788 -4.8188691754482251
    6.4260061890767419 -4.8935455135372727 6.2377194681333927
    -4.7018734127061883 6.1197464468073868 -4.5893933007092276
    6.0215070564707736 -4.4904610775797682 5.9129229229452509
    -4.360605345267607 5.7412842503766344 -4.2031243428339033
    5.5693131347124529 -4.0121567502347917 5.6043336170166445
    -3.9982070583299607 5.4891629827105479 -3.9147359145366636
    5.4629453358835445 -3.8624195631378488 5.3176305770525802
    -3.7612161883972357 5.1362136595413288 -3.6039757933762555
    5.1237964633484276 -3.5996565463812602 5.0635953155092412
    -3.5294781212064117 5.0118688410965744 -3.4747548743750798
    4.9812015272235772 -3.4295987362374518 5.0782155331681595
    -3.4666857244330105 5.0350690703474248 -3.4297021257653793</input_scale>
  <output_scale>
    0.52631578947368418 0.49999999999999994 0.52631578947368418
    0.49999999999999994</output_scale>
  <inv_output_scale>
    1.8999999999999999 -0.94999999999999996 1.8999999999999999
    -0.94999999999999996</inv_output_scale>
  <weights>
    <_>
      -0.013731178560386996 0.037916363232116355 -0.065606754750238888
      -0.022873767738885283 -0.0062404040303978775 0.12023893894677117
      -0.027536952427634948 -0.040442943938973359 -0.12032609755621584
      -0.028111967509902806 0.084496862337770026 0.036265612462200843
      -0.087029952953488754 0.04583483799668036 -0.0029493618654339937
      0.0030532790222069363 0.02929607453237806 -0.040260010103753928
      0.0023662816731755817 0.0094455457395152889 0.062820956171946524
      -0.018910374124299953 -0.0073349691425469068 -0.043375706173679612
      -0.00056289568346253504 0.023530705156586448 0.039724619706318888
      -0.018977798021273983 0.010809280002657828 0.010664404086540831
      -0.0080445305055640414 0.039309622864426255 -0.041188375336394877
      -0.024609057108352064 -0.0024655814668388234 0.065660578072149006
      -0.010276297611452049 -0.031465043922000696 -0.058977455230269767
      -0.011529542914432728 0.045289061861581999 0.043072965112876074
      -0.025390302542227908 0.013400863041655022 0.0097963921983826759
      -0.014704960649760691 -0.014237496762893206 0.009149570552893933
      -0.0032132828517803711 -0.010238615987960302
      -0.0040871638244187082 -0.0096045062470053039
      0.0077090302630062509 0.0008313186485460419 0.011354542807618629
      -0.0052632892544530567 -0.011234583860202024 0.005441692596592892
      -0.017094447532778379 0.013811449195393292 -0.014189447156900055
      -0.025082452302911659 0.028808189885089177 0.0090135720451278659
      -0.019061213682594242 -0.029411562284854233 0.027403667966603776
      0.030225265781337832 0.057073851174789032 0.022506833819554869
      -0.054129998795735081 -0.027954421452195288 0.044824290992714774
      -0.036065284359897913 0.0055301010464099331 -0.011106959165606814
      -0.0034407641420342301 0.0045429225773342382 0.0052079972840099022
      -0.0040218687533397704 -0.014529975558254913
      -0.0061397716784303584 0.0045492342083709274 -0.012415759099059143
      0.017400210183715039 -0.0049261715825295116 -0.012024173916726092
      0.010725099339866279 -0.001673542317989757 0.014197905681482156
      0.010039147774224037 -0.027734042709284687 0.056368546341455709
      -0.0028321911409476121 -0.00082779628838167303
      -0.076747365727988737 0.0062832184880038337 0.021393879838637296
      0.07274153943435839 0.031066822788657709 -0.048717554554033017
      -0.034925897126534988 0.049201396994860987 -0.039258941120971592
      0.012760502073993582 -0.010303306893490882 -0.01670437769473667
      0.05831406171814503 0.01019436990087378 -0.022069524800985611
      -0.053342002802069882 0.019922495482378021 0.020744885869350436
      0.073138312398422708 0.013367929646831249 -0.056649688968886336
      -0.020635127044582445 0.052043181065127592 -0.030910220085563704
      0.0056319536354082819 -0.011096828642795528 0.0062627727667920775
      0.0023963761144972016 0.011258924678924068 -0.009094400921749143
      0.018419044864964963 0.0088978926075246097 0.012664556982383605
      -0.0082960193574778303 -0.0031507602285340166
      -0.0056649632963653414 0.0088365322385485397 -0.011935191184041911
      -0.017438354919371755 0.0052923052624727039 0.0070007192386291536
      0.014009921756645474 -0.025629600521384195 -0.007208076191710289
      -0.0074696855740614071 0.034415081837551383 -0.0032960996052550503
      -0.00041411390354821858 -0.014031087669942698
      -0.019590274805596802 0.014788389061433878 0.0073305269339119239
      -0.031539247446013448 -0.0070174326501260239
      0.00035331477102265867 0.008265461528401968 0.036666284808766728
      -0.048039847377161285 -0.00052887570261959504
      -0.0018658463201164609 0.069444071674561944 -0.011019566545892614
      -0.041049934762967019 -0.079708661547839496 -0.012580907860811277
      0.052929659915879931 0.025732303373189026 -0.0541238316535156
      0.017090657599931967 0.0089033593702657204 -0.0011129086309403858
      0.015762988022722725 0.013465936967283171 0.0030852724715926447
      -0.003845347368893606 0.013846155111642791 0.015913870826961329
      -0.003885014599072336 -0.010492981837009129 0.013612656876028683
      -0.0045188589419286242 -0.0066093997902390974 0.011673914212860757
      0.0039246318992515912 0.013247107644598856 -0.011392940948813065
      -0.0032459768121629387 -0.003579014200863232
      -0.0017303059084133236 0.0043480811367592569 -0.01081488580849296
      -0.0046680456276487854 -0.0036417735317338783 0.013747468051993931
      0.0096485008908196446 -0.010474009543030335
      -0.00027893627725341611 0.025600090627769106
      -0.0017698928861107797 -0.0026898957184186673
      -0.0082456246366522674 0.0045395945877073273 -0.012326818340795633
      -0.0019610888155121502 -0.0022022769084125812 0.030650320703557821
      0.014088835370589159 -0.0074527114632617613 -0.010737668226924853
      -0.017578961841658313 -0.00084003416706725687 0.011192655111565324
      -0.002297387034013808 0.00808455507928664 -0.0071180585267121036
      -0.0037116031765462442 0.013946451887743365 0.0075979621858684133
      0.0031628750096084715 0.013180446882812022 0.016749164376839598
      0.0032806924814880174 0.0068355540175549226 -0.0047245935041848692
      0.0026370315380748314 -0.0095459316851706048
      -0.0039166863180877991 -0.015471553690447275 0.0058957149098519263
      -0.0045305940706706072 -0.0089871281916176302 0.018570186146163448
      -0.017747069673081071 -0.013247050616051869 -0.01081656846432808
      0.042115286967938668 -0.001026741217656882 -0.0024954340624296053
      -0.03498968896073628 0.0048757925776818306 0.040386873757070466
      0.0092410805591198047 -0.032433400492089329 0.026419219643402648
      -0.0059728967552612564 -0.0074327291607850067 0.008384908065750105
      -0.0021990769701116094 -0.0082158774791683282
      -0.014921262682260523 -0.011298185096180311 -0.0019655967328667712
      0.0060475729559227691 0.010394499114543754 0.0050812436800834878
      0.0092716006881992698 0.014840768583078444 -0.0014842956577825173
      -0.009775990822839602 0.00047584845161567944
      -0.00069525365198733712 0.018422829394232797
      -0.00022474505131345196 0.0061635636914711585
      -0.014544740529511338 0.014227394026427666 -0.0088323356633001841
      -0.010564683551597042 -0.031411391592398932 0.010110397243878447
      0.023308940098457853 -0.0063991358521486054 -0.0060349905837173709
      -0.0031646251827904997 -0.013189307315060026
      -0.0068567858586615262 -0.0317252110281755 0.050495552330165686
      0.012071072467479634 -0.005936501356624259 -0.064684341928082145
      0.017864931579952396 0.016622388561004828 0.068699259090160752
      0.01278580843537353 -0.059898405926956562 -0.02499635607425045
      0.046026517301630362 -0.020963899867548558 0.018834110098107391
      -0.0058005684164587198 -0.036754953588376618 0.078255685156837687
      0.030344477527992332 -0.026329667866803762 -0.1288719631480153
      0.037414225885542336 0.047418917352679453 0.13103508335278122
      0.019410316848056004 -0.10297402791477663 -0.045201552320079025
      0.084239922401402517 -0.069652972929887522 0.0059643400080981301
      0.0099867842428062407 0.0026734165748432924 -0.0018811727133562863
      -0.012202418648240848 -0.015029603985110202 -0.0012884070483136459
      -0.0028707000274519794 0.0041690728320527828 0.0050303864872373672
      -0.0043783453967323593 -0.013001144431304295
      0.00061188168980416972 -0.011892842236041846 -0.012100141926097735
      0.011767696166877575 -0.0066057750664274975 -0.011743189974028638
      0.0061247320115018289 -0.0079273857929615475 0.001253506315440512
      -0.017277314326591846 0.015517323236225865 0.00024664840430999372
      -0.0019742892250869306 0.0036714198749176995
      -0.0013604613069120057 -0.01614173661077889 0.010040819572344978
      0.0080327652347583663 -0.0079443743663224209
      -0.0026612915570577143 0.004733254463859359 -0.011557525070109953
      -6.8605416473177828e-05 0.01182663950928531 0.0052823695485020201
      0.011076746017225136 -0.0085181400071261942 -0.0074877333797114835
      0.0070453842896140506 0.0072623349889575882 -0.0048716596833172096
      0.0011462244161029786 -0.0068350609771988874 0.0015551060923246663
      -0.011325490037387987 0.022291003645244268 -0.029312174921620741
      0.0066287246990082227 -0.0079785007303504792 0.046880477193863838
      -0.022663111631833932 0.0019287343338142602 -0.046987644617148154
      -0.0021021991260822518 0.016474618940830778 0.003458814891798796
      -0.017404456411815768 0.024686775657110801 0.01480310314285388
      0.01008949912495761 0.00076168323643120608 -0.024078184604316516
      -0.0070165181229163024 0.017317896447332087 0.034459392635813185
      -0.0077804444287136384 -0.024835608421813246 -0.042659431817757949
      0.0026002856260907282 0.030529442296075366 0.0084309201261369825
      -0.032378078364220519 0.028745312193542604 -0.00047866306464672249
      -0.012637291822648406 -0.012633755444581436 -0.0044880229619706684
      0.0021696322263480275 0.0050785935567292731 -0.0037471886752964189
      0.011117228729726094 0.00061603209601329559 0.016148324933416069
      -0.0082795004497331019 -0.018612149401566816 -0.011162221055106825
      0.026422177420858457 -0.011627643092433738 -0.00040783007997177966
      -0.012394834751156547 0.017752264692633513 -0.022348355292002776
      0.0047443693299399417 0.0053751118444778376 0.022551768472073169
      0.012682963490254712 -0.0041306793004081879 -0.012802833150960358
      0.0028508940705146953 0.0080513250750243615 0.019964847126280567
      -0.00085786819048427063 0.024988603000021758
      0.00061007914104376534 -0.013140208307022769 -0.014030992052594369
      0.028386529108438818 0.019389331162566949 5.261904958212758e-05
      -0.031839444372087029 0.0057683323188331432 0.020019994987722597
      0.02944600400130824 0.0080315651959075932 -0.025454759184443173
      -0.011369142938083006 0.022034939538903616 -0.023325865514347812
      0.014719887735294132 0.012084873991043537 -0.030914469198866684
      0.050626377504386762 0.0089454978027659875 -0.0056551475401593332
      -0.087823067199787025 0.032015930160102374 0.028165760616412142
      0.086953858974155779 0.021631028431586975 -0.062045499805865822
      -0.051188859926568651 0.065252305100113636 -0.042088083563411767
      -0.004546540045737504 -0.011833372237733463 -0.016042395542498936
      0.05138389644879604 -0.003601590029028465 -0.022838001717026601
      -0.055176855614739159 0.0063483533604442527 0.048040591921056322
      0.069095503169279815 0.028919163257069759 -0.048601116176070776
      -0.024208176289035561 0.044447727346637642 -0.028102959301751922
      0.019298907044550742 -0.011457028624984062 0.012391407396053059
      1.8382935532874904e-05 0.0073681677239180957
      -0.0084387433306675197 0.017252013106485758 -0.011888456820161623
      -0.0093631353374731569 -0.017835961193485721
      -0.0054368006689466631 0.018532549709416524 -0.014684748275680663
      -0.0096327338492389909 -0.0015181275253110696
      -0.0077840766856401315 0.0073635047556756235 -0.019472615938661335
      0.009848834089517108 -0.0039001833244302012 0.0050861769991605082
      -0.026262963643835395 0.0050782277228863248 0.0053523386695272564
      0.05259393935932602 0.0046459875397902219 -0.024010371074943516
      -0.017197522348945709 0.037557962609994826 -0.030757861007019625
      0.019220124424761335 -0.0023650948314544494 -0.018295158409049241
      0.052094404177966701 0.018116901365321125 -0.016602188726475578
      -0.071132247541536617 0.0083833820330147923 0.044584350050121069
      0.09834120628408817 0.038034037125571928 -0.052125097874220656
      -0.03062859798967953 0.063255560010737275 -0.025638737356633516
      0.00024666403253769119 0.0068134322176855132 0.0078881529226924978
      0.001331870932634044 -0.0072786529270552928 0.00015389104211122875
      0.0017013276311358242 -0.012289007617041619 0.015654556958432219
      0.0079860299220156812 0.0052654526449257937 -0.007794721895545577
      -0.0045377870719087764 0.022801243696437098 -0.014065045070796783
      0.0045596392739843629 0.00089643899468134125 0.013522826061936406
      -0.011404890363124889 0.0069190182088429697 0.003721849898403809
      0.055431539051630951 -0.011458450296521676 -0.010304595984230039
      -0.047837446383408533 -0.0095432023095155475 0.019020185141259052
      0.0022454028857707103 -0.033248974345084822 0.020641909680909301
      -0.010275888970195447 -0.013294814242177593 -0.0054380221364550806
      0.009996143346144102 -0.0030294981137347497 -0.0018985240247828333
      -0.0057045724092423559 -0.0095109419446595417 0.011546663291453773
      0.0063753879544335493 0.010001486866087005 0.011900555598743532
      -0.0039576306418434831 -5.1978564898835645e-05
      0.011373755054193387 0.0019926374927013808 -0.0081618462351383259
      -0.023038143689342528 0.022643076585361598 0.015219407852020713
      -0.012851667762444362 -0.02615957957882975 0.0044136307846431152
      0.013659915797300685 0.033737043535956551 0.028282069473809655
      -0.031380904112623148 -0.019647243488078794 0.042042654590304887
      -0.0068689450861483163 0.0049111057568693274 0.011347367745768751
      0.03533580417667475 -0.036119971876789565 -0.0015743357819784465
      -0.0025988845120795364 0.059433603016108963 -0.012873900112891076
      -0.013045910602561481 -0.056100571945581421 -0.008050380420635753
      0.040207792366977822 0.028584061671861515 -0.057321953311315947
      0.024390031028170542 -0.0099127351518130541 0.0057471702679198731
      0.012313352867162038 -0.039936164419230105 0.007862628674883871
      0.016314539452277961 0.06571611003341489 -0.021764885880518985
      -0.032252814917591945 -0.054802659047684575 0.0016296925549260605
      0.048426544454378564 0.02844697262162903 -0.026302853522136439
      0.014529095972309336 -0.0092643444443549373 0.0094010132802697741
      -0.0075733816015619735 -0.0016670554221692895 0.012252842003983301
      0.00061273792362526679 0.017990933143561018 0.010553326871520101
      0.014377869953434154 -0.011354035648685038 -0.0061713368541623037
      0.0027084628001732385 0.0092549852137367768 0.0040829288563226885
      0.0067284609402405784 0.013883320931026106 -0.013032579694038456
      0.0087640620911473375 -0.01517055341818376 -0.011475173114013066
      0.012114881224265257 -0.0035151984424746964 -0.0020612258371596544
      0.0091199718060712698 0.010300114092151544 -0.0070546749239274046
      0.017951175917638805 -0.010477350996270458 -0.0060041383587769934
      -0.0073647465302064527 -0.015032583595091471 -0.01288666348714781
      -0.0093270807140171542 -0.018828481942880101
      -0.0095014599396981911 -0.0060189320347234258 0.036863455526291965
      -0.019168114616787215 -0.016324028115960516 -0.025657801859481223
      0.009584714721401686 0.0021167727424796614 0.022543419760420312
      -0.0010171009721323433 0.011387256344573365 -0.0041966534750600233
      0.0024943830985325308 -0.0042888282670822224 0.0091801557457167633
      0.0067323244528651694 -0.016355001536074675 -0.046162632340097674
      0.021277298918616978 0.0081451138130902625 0.049461598948225938
      0.02407579695716227 -0.033387652810639559 -0.028465078667259031
      0.027694764783311624 -0.0041810182052961246 0.0018929250036087927
      0.0055514990515971169 0.0088880408017210696 0.0014570784028832089
      -0.01260097180513858 -0.001846477230214564 0.020886435939240253
      0.011278509261436137 -0.0028162188766514781 0.0098076271066323915
      0.010298728199154684 -0.014324234174109376 -0.008117831125439838
      -0.013243695126267012 0.0088133045164732731 -0.014173685078763569
      -0.015710638227742661 -0.010717231120659379 0.013222841304494274
      0.003786695912896878 0.0048709945066990994 -0.0086007763467741468
      0.00044179293707195897 -0.0035795849698010565 0.014605937634217348
      0.012149177772087006 -0.026671356894764513 -0.02775234050374413
      0.027062598896664136 0.0017403338118776451 0.013099782277124359
      0.012727605900995413 0.017648572791864436 -0.025025937027752035
      -0.010547808272608603 0.00089563054837008297 0.047680497004727408
      0.012707366139651843 0.00026659335419431242 -0.032573972248001168
      -0.0050140928399857116 0.007094574602622767 0.018605271401833493
      -0.028053522568952004 -0.0031616147046370914
      -0.0067313085404357214 -0.0035327469145021708 0.013678889088308671
      0.0065105754345306053 -0.0062018509235766102 -0.012860169143075246
      0.019707057760443521 -0.0044228087120753747 -0.0076010887485138505
      0.0098913353139002472 -0.0048147589150311912 0.010599578016139857
      0.00039885817114581088 0.0099754183385940293 0.0055746656094953096
      -0.0067863459313506225 -0.013041381922975491 0.016184687222320256
      -0.022007081345905836 0.00083622414347097175 0.0088965749555846695
      0.04265475663427265 0.0015013664661791453 -0.028321082076351832
      -0.049193406779005362 -0.0095340618802225753 0.038182750345730918
      0.013869929401003015 -0.034761365032066519 0.0334888745535665
      0.011899806053972822 0.0052068824445891133 -0.0013678919885360206
      -0.0056730998019710495 0.0031491352997396536 0.017752674534598497
      -0.0028717086482047526 -0.016620871206528873 -0.011077995617222926
      0.0063969689358632483 0.0023352916392980309 0.011168821580694228
      0.00041430140018457607 -0.0053853380110076921
      -0.011177733492079801 0.014570244321335883 0.0059537533540069349
      0.0025636660456821204 0.0068842559884304032 0.0127577367105343
      0.0134211214052343 0.021895878930506481 -0.0037557217065409538
      0.00028371645468087958 0.00013522213768479607
      -0.010464433374132671 -0.0050369875486227771 0.0022277448554448758
      0.0070671747342244346 0.01339789859406175 0.0076935850300453362
      -0.0062548885745224029 0.0079742575569672555 0.0062707630169238525
      0.0015280292241499282 0.0078548561446277372 0.011883352732712529
      0.013637452117459935 -0.0066676784520323558 0.0066163885222408668
      0.0016720232190820226 0.0078243093066021011 -0.0088854382550269881
      0.0017280436482623703 -0.01516250551178046 0.0045243391351765042
      0.0086521601126911783 -0.0078410937146611188 0.008256550384435242
      -0.007519012490677642 -0.0089185181611628334 -0.028768180616764293
      0.004487215771452318 -0.0053331214645365253 0.017564090621013311
      -0.0050632150767454904 -0.017609898141026675 -0.015207246357479715
      0.0057812414583265645 -0.0156514484063799 0.0014201546251241838
      -0.0013361124383468074 0.025276991373893297 -0.072291025590250885
      -0.023245741592610374 0.024217892747069213 0.12217346747318612
      -0.01825565250886477 -0.047163470422700041 -0.1298701387269558
      -0.017262867590412706 0.081752879409459342 0.057561696157945368
      -0.068289339686961034 0.050642744366869101 -0.020086342149817592
      0.0024602324351335248 -0.025646280628891824 0.044695473854455318
      0.016517719510743181 -0.01810802395172989 -0.053104159613461432
      0.02700859852009602 0.021709302408132288 0.051452558787593028
      0.032049776650654005 -0.050546682170467323 -0.020703186234515471
      0.053814268678496244 -0.023099504413852993 0.013489832265117709
      -0.015255535476350342 -0.00325407724694356 0.019397128012154582
      -0.0098111806752173014 -0.0029682891641918127
      -0.053222870722010963 0.002794447089026608 0.020228254777725999
      0.039739637504806941 0.002505624365363059 -0.046301417748437823
      -0.0049012661906177894 0.023655637608421674 -0.0070950690926856802
      -0.0022581329531974927 -0.0034708371896707089 -0.00412052568412552
      0.0062055049786093157 0.0032786816436624201 0.0059208236626680328
      0.0030096245305757758 -0.0072228099142516529 0.008535108232585159
      -0.0008433988957411415 0.0026381101574544808 0.0099076187378720534
      0.0013730078680080256 0.016976207102976367 -0.002586847114331583
      -0.01387852469785765 -0.0027206609367449704 -0.0095977200829094351
      -0.028368135848493219 -0.0082593483101735098 -0.011786265785370476
      0.028415468591314261 -0.0093627851275786197 0.0032229644879463101
      -0.0039320806946435494 -0.013376317628769736
      -0.0039455823452491569 0.0082890240609636116 -0.024247709089390758
      -0.0024334316786468451 0.0090167029904561265
      -0.0052086156607132087 0.011294925833448089 -0.019462773086331805
      -0.0091651643097906271 -0.0052622351365688921 0.031902317319095569
      -0.0075146711859025847 -0.0056626499397648749
      -0.028568431409818556 -0.019151135418653792 0.021420091807217673
      -0.00048876725464892421 -0.026683842369664194
      0.0093287082074204799 0.00091331693771198798 0.012177602169848275
      0.0067255230865456619 -0.00014183713200903626
      -0.0086798056366773867 -0.0068995780558039196
      0.0056616170436845185 0.0096655542186060359 0.0058648001383544103
      0.015623924829453205 -0.0080851326114067257 0.0041137385404772398
      -0.0035170027533371366 0.0088777300557920137 0.0035640115348399724
      -0.013435370281784417 0.0039232892734228286 0.027556436480519371
      -0.022053630899252222 0.0099095369573015801 -0.0094454539423776355
      0.025438464828701154 0.0029509034049130605 -0.020223712229785931
      -0.023638075383225102 -0.011141904755590801 0.042182715682152171
      0.0045423980196767633 -0.018136247522347437 0.011264175868014962
      0.012072690946080862 0.0089464324657614475 0.021328985155039382
      -0.030915964767769383 -0.0061430958812124653 0.0081507674448305437
      0.056708504705346476 -0.020250104789578571 -0.027690614432772268
      -0.057029166110505132 -0.015755181415293446 0.061126637660530773
      0.016598187670770276 -0.060008077326366038 0.027919950072140497
      -0.015564790343065033 -0.0096816849983557916 0.0011125363002787816
      0.01341715036392898 -0.004091530222218618 -0.00023217331639428809
      -0.0041337221703026386 -0.0001107107572579182 0.010316986520115909
      -0.011686187980129799 -0.00076964390857608912
      0.0014188708107159376 0.016524905232670112 0.0052067950400848115
      0.0087743226364541457 -0.0069757129863807629
      -0.0051816403689349238 -0.0088237018654576081
      0.0013729645316064216 -0.00066859145220043894
      -0.0083011810451350029 -0.0148515568819685 -0.007303643670188785
      0.0069985246975749335 0.012233462614540998 0.019770538687999765
      -0.0038366233133905804 -0.0083136702100001601
      0.0095644059324391292 -0.003541832618417293 -0.010032082449880365
      -0.00025562025264393444 -0.013601183639322193
      0.0036842366558165239 0.0091377104629025308 -0.010949332934327387
      -0.030809844937957152 0.0051752065424395671 0.0072451244357495731
      0.038702240398654109 0.012059360606978691 -0.023318397195814307
      -0.0069029359569186648 0.018584488347192823 0.0011089859536626719
      0.0092749318141619845 -0.00719553540172001 -0.0054541423463944838
      0.036465590424649023 -0.00035090102868033451 -0.012060998155484635
      -0.061620052059870485 0.0088183418932050155 0.018498300571144769
      0.052581491365441504 0.021839751793546698 -0.019415047358127456
      -0.0069760997771116055 0.045280837659138713 -0.036759368952820656
      0.0034195841696334061 -0.010040524121722152 -0.0070678324317768396
      -0.0040545562272910861 -0.014713449841557003 -0.002566979207257499
      0.018592208044546411 -0.00079210126407245306 -0.023315938552344269
      -0.031930470613513194 -0.0093739858530569042 0.016493203312180422
      -0.0048131179386178601 -0.029175591189062596
      -0.0011009285968305376 -0.0023468104373844684 0.011987328354056649
      0.05362504921381292 -0.072079880164444818 -0.012663509376924877
      0.027605220525627819 0.11482101098681118 -0.013051145328723143
      -0.046016553361020521 -0.11420762298284547 -0.023938973647076634
      0.091970573024632629 0.070331540585817212 -0.089987546343891792
      0.067088065158645918 -0.0043561586070178524 -0.010429092036305885
      -0.0093544550441201253 0.0036403488093188566
      -0.0024483457123660552 0.001344354322769742 0.0049399864259863421
      -0.0073990113771962981 0.0025138328655262172 -0.01168544533119663
      0.0080836801443989765 0.0035811664518538167 -0.012648588574915371
      -0.0055718041581383874 0.00099748433185044456
      -0.016233151848121387 0.0075252598675442373 0.0010030838596971519
      0.035594871029188992 0.013705298196004937 -0.011952150602895789
      -0.038853286778364471 0.017587116594478147 0.0016905819641285977
      0.03399654774917614 0.019114530016256345 -0.011692824369703612
      -0.029544768254574978 0.042021348855717545 -0.013226470986515223
      0.0024010789501072941 -0.0090942488039417752
      -0.0068907112827585257 0.03432201329959314 0.00044454376611442287
      -0.0082929055993519584 -0.060445045374496555 0.021077208475295418
      0.030059620292638915 0.053764040040966111 0.027486477193831231
      -0.035359011485711057 -0.034365997863909439 0.04309948489113849
      -0.0022520384314532607 0.0061634794250195434
      -0.0088807634452805206 -0.030689238837112016 0.063974867703850649
      0.0017473738055765577 -0.02287041985916145 -0.078540762766602573
      0.016076104549485871 0.0404791915751972 0.10401815467595193
      0.014753856216771126 -0.052472007735721055 -0.033706161450444569
      0.060560088189998355 -0.042051521769302359 -0.0048069866583844096
      -0.010943883401336158 -0.060915439969112369 0.067984829291325141
      0.029666651335484694 -0.0085964941538019882 -0.11076811402930313
      0.0095504828998167948 0.058226196229504014 0.11027295588729764
      0.01827809693277278 -0.096641129493550262 -0.06191006299057368
      0.082696871762244509 -0.050467317624959158 0.0053241173377991929
      0.0095391026947295038 -0.015704892729927859 -0.016568548318570808
      0.0063410016386402741 0.0033966767057302485 0.0061174004097038059
      0.0010054228860199986 -0.0067196200480560504 0.0020591616735480471
      -0.0092331563518562171 -0.0062702043262342945
      -0.00073937941693837594 0.0075991829331119492
      -0.006926101243284041 -0.012779575469823815 -0.0080848993437163796
      0.037724927888873376 -0.016381461513529396 0.0057310950167247087
      0.021455313654494341 0.064870876862576185 4.5857625634912724e-05
      -0.037220278328839708 -0.042868040174862745 -0.0067945954902850136
      0.040064071747849539 0.023078795604081822 -0.037603618651234558
      0.033810578649604607 0.0075434682621828399 -0.007538345189863291
      0.028842921721666911 -0.022912628609249128 -0.017771116892234699
      -0.00051509428331966754 0.054770895384771805 -0.006444666785220465
      -0.013809729071119705 -0.054885146171969643 -0.028847581631287877
      0.052027078656770705 0.040094271634758205 -0.039163824952786294
      0.040176575918611325 0.0097713847385043507 0.0012685976966104924
      0.012920531009516179 -0.035416154802980347 -0.0015086906780106088
      -0.011456992584748912 0.028552822857661194 -0.016961077142677687
      -0.019995033921105541 -0.028599727092983515 -0.0042471683556730361
      0.026245668789642556 0.0080614352101020421 -0.0085166066666092343
      -0.0021468131658599751 0.0079383282748675069 0.0056634168267289857
      -0.0060057184019671169 0.033356753867582668 0.0031096150317002367
      -0.010085122077580723 -0.024891909393984359 0.017836407012373236
      0.020721534074232793 0.027982268846851795 0.0058023077144047416
      -0.028177608245311174 -0.0053909402721424061 0.042061312055008925
      -0.029721074208020514 0.0086118137586056343 -0.0064789321898296275
      0.0071911809629621902 0.0034983553688866819 -0.012139444142813219
      -0.00086008750481941798 0.0080619162794211031
      -0.0010651271189196009 0.0022713876473980793 0.0060281223085636255
      -0.012257127979215609 0.013408967554956394 0.01629241770227359
      -0.0042688079759049995 0.013971737814203971 -0.012411029786824132
      0.0061180460907307617 0.0082770300062021112 0.008240815822956854
      -0.014884563638561044 0.00047647721289556939
      -0.0045723995915434553 0.0084008038533499516 0.014234230481484181
      0.021751932115030174 0.017898309522981312 -0.010000984814599724
      -0.0076157159010649253 -0.011101697546898303 0.0028784147832462839
      -0.002718563272794424 0.003508404050271207 -0.014915680527784447
      0.035028290341197713 0.014188115196750643 -0.005986593951166185
      -0.060706534184742075 0.0041940490119079018 0.022909311145694469
      0.074471305926723602 0.013069157411457494 -0.052734573480036476
      -0.014984617538367915 0.033994171981535981 -0.027561103798965671
      0.018833034758376516 -0.013022409837644551 -0.016992635670562403
      0.021218302872772935 -0.00015494078409941471 0.0080957524418019764
      -0.016761644015754307 0.020361504491963354 0.012831389313466345
      0.041014090212089654 0.0022780510820835788 -0.032364868149798283
      -0.0046217716124432682 0.018044562953699526 -0.013121098813353082
      0.016782370525503791 -0.0083892294790114293 -0.0050296695036510944
      0.020581635165209198 0.0079113639846622452 0.0043352545753945915
      -0.026837656264780102 -0.0016096703435905901 0.0069844995565291456
      0.030087448427613669 0.014064031614145302 -0.018074336182231584
      -0.01573645504210398 0.014104717435281199 -0.0099233978041182863
      0.016006443738977208 -0.00179941656678701 -0.026471415466697474
      0.017791543980253583 0.023677242664072163 0.0034875334265997292
      -0.083243876161419372 0.0071973422668726826 0.040122732472104468
      0.058648180015407898 0.0028546293595483876 -0.049666291316044657
      -0.016724894578085799 0.027791142265403624 -0.04062167534451052
      -0.0071784839025004401 -0.004905347844677754 -0.03822275936205561
      0.044070161412803684 0.030259344195026586 -0.017723770031334633
      -0.12172148026083557 0.026225887683038223 0.053403861289415204
      0.11832480411320084 0.032449966273036826 -0.086351281133711461
      -0.038208290868369049 0.06469235693700344 -0.044550226259400819
      0.0089750575581309076 -0.010263375293453445 -0.030936365602476455
      0.028083000583239762 0.0060878192544954295 -0.017275678627815039
      -0.055178821725241342 0.025641700335345373 0.010631606258686024
      0.066210141126513758 0.010550138466511491 -0.045418881673875013
      -0.026105549113053093 0.017240513973920801 -0.027727823219241724
      -0.010469954519296019 -0.0080355992403827875 0.0074073103453233952
      -0.017725502558764424 0.0089449265957291108 0.011945631046997413
      0.03871850158673823 -0.0019674881015810347 -0.022909984337037601
      -0.052654771397864737 -0.0063750818756824236 0.010657299721420902
      0.026386848902093668 -0.023601733036182088 0.010863208456114493
      0.0040292337053890355 0.012693229843707566 0.0011964366816115718
      -0.028305755641640916 0.0051712139747437146 -0.004044336948355781
      0.020543752065056025 -0.016292420860688012 -0.024721351510737597
      -0.023588917745928525 0.0063211870033457766 0.018553795173622455
      -0.002927622419790971 -0.027112299231152232 0.016958741340239922
      -0.0081865987852529441 -0.00055914905707888957
      0.011616899834217332 -0.01940631740849252 0.010273666307423074
      0.013371896648576706 0.02549719116627866 -0.013260185126508296
      -0.02312502814443429 -0.033729078811945756 0.0037429139207665546
      0.03557439190054134 0.015068509372535618 -0.034939912102568041
      0.0068739252809052083 -0.0080520663811745972
      -0.0055285636802388013 0.03508273585029003 -0.064563054369973963
      -0.027958098725787191 0.0076060108879979502 0.10164259889729017
      -0.017775282272592237 -0.03972994258800449 -0.09520099276599292
      -0.041026856003438812 0.076657860172038364 0.054725900729442715
      -0.058275276264100256 0.047548105050541412 -0.012192042303899876
      -0.0043536738730470771 0.0051340808982404743 -0.041376381829015936
      0.005766871278086283 0.019272915602144704 0.034126553650471493
      -0.017895518197477235 -0.017948306787728324 -0.042886445186980676
      -0.027876613696138915 0.046042243501834987 0.033837918904540458
      -0.038411226140932411 0.022981811796505245 0.014139216936149357
      -0.0084972572195030644 0.0040205336064388433
      -0.0091485643674142584 -0.0025239323345471465
      0.0059816501769801699 0.014252372244354401 0.011393191090386022
      -0.019859135768174573 -0.0045842547599162864
      -0.0077850722484420582 0.0079386078583967273 0.017904899547383165
      -0.0022835370368336728 0.016277515007721895 -0.0080929601732528441
      0.0066042622435003142 0.012614635198733676 0.0091467484678456803
      -0.0050944152748910966 0.01343712966017202 -0.0002243183410337944
      0.013485518552780285 0.0068709141186158113 0.0034873508563245796
      0.0004222570858206905 -0.019971283928081607 -0.011957827714095728
      0.0077742868802331911 -0.0054913349165007794 0.016674569657976885
      -0.01169703401065497 -0.021977215730360978 0.044281724475622675
      0.016919757846399836 -0.0072980265323865836 -0.052754585731305086
      -0.0050959908452948097 0.032021273871446571 0.061866473612162111
      0.007665703748063587 -0.060212134734486882 -0.024691694234858071
      0.034583477812413159 -0.023289014960237015 0.0086597258821687548
      -0.0038775113574791857 -0.032145649439904854 0.029540019273831371
      0.021161528547154102 -0.011639207525455351 -0.033341559308280894
      -0.0078544889288909812 0.025056602852169697 0.046120231271577689
      0.017185469330991753 -0.030826478621060534 -0.032134811139909868
      0.038631774794009664 -0.031602024087844842 -0.0020698902393953369
      -0.0036261674897699009 0.00338124894360895 0.01302754565982928
      0.0025522001795293863 -0.0020903479236866495
      -0.0092057717367680578 -0.014627021717844687 0.012639923885102562
      -0.012173964796867756 0.0033381872715245527 -0.014168519188547071
      -0.0091081048731464359 0.0077633009794890661
      -0.0052747690047348379 0.0047000340226229492
      -0.0053975225919440746 -0.005917067778815335 -0.005499788403769172
      -0.012956011177691537 0.013420575895854207 0.022364146367029141
      0.0029444702203781522 -0.026375504737367619 -0.040481280805924544
      -0.017106682496416663 0.015670915441881161 0.015998762416472773
      -0.027282635848306123 0.026288748120464233 0.0056260213705212536
      -0.005894895507630722 -0.033405607440492202 0.034061765505209583
      -0.0083274038142219908 0.0022093834162365848 -0.029197157547637062
      -0.0059349415141294413 0.031377329244508811 0.027817517979871764
      0.018296222824345561 -0.023660991316190289 -0.02369237205645966
      0.03449592225129864 -0.024587366042044062 -0.0068839805719773011
      0.0076452482420111796 0.0061208998589337722 -0.0083558513212905767
      -0.002416749000420243 -0.012061736829402694 -0.0093135948356731987
      0.0091004908193890906 -0.006343737314553597 -0.012586633539579197
      0.018678749949563669 -0.021207925886804663 -0.0090417533784159787
      0.023870524249573487 -0.014781004334888725 0.010440851232468117
      0.0041932301227967225 0.028283405783470907 -0.02585197060172377
      0.0078592391200671356 -0.0047464999798728031 0.054077456037910324
      0.0038065682977241194 -0.0053805410351780766 -0.047354932061742884
      -0.027150493060663538 0.032130046299879464 0.00851090989591409
      -0.044481095105299781 0.024841760739288458 -0.0051590450209473343
      0.0053072174204018717 0.021085351234189288 -0.0096513362196391766
      -0.018006274784578613 0.0027343864348818485 0.056588022913835932
      -0.021290266041971415 -0.021667194198608561 -0.064512441686342833
      0.0053398933839673146 0.02004361873933657 0.01211401953679664
      -0.023424598614325221 0.013304809727132797 -0.0073706840355624928
      0.0089392610038671189 0.012546341214149067 0.015701618660774044
      0.0077088857912722339 0.003930102613004716 0.0065276173906652331
      0.010091834811872225 -0.010401604782189624 -0.026621165036970523
      -0.01545127755491103 0.010644710093872994 0.0011506599450518684
      -0.00114577153448379 -0.0016359748980905636 -0.011411646205548751
      0.016357412582697815 0.011732782033493601 -0.031298500915571084
      -0.0099280890340690559 0.016684130425719926 0.07310996727692877
      -0.0179464478578653 -0.01614535777827654 -0.078660723772475849
      -0.0061253124289674613 0.049638815383444841 0.02998887726964555
      -0.028042433816240109 0.01565609780877204 0.0028443596368719721
      0.0097978103323422983 0.01785638814684494 -0.017535221864244426
      -0.0057226284517445693 0.008668679950699339 0.040206264088679056
      -0.016090100959818856 -0.011705633546826947 -0.042973782054239365
      -0.012294487979647498 0.03386280404869469 0.015636434576920238
      -0.02680627650270084 0.0027892544119893213 0.0063679975765049308
      0.0076373148657951249 0.023424011521134595 -0.026428315054188641
      0.0014269400282193965 0.0072388545353677548 0.057488624502462726
      0.00031695434719938344 -0.0078402738041384642 -0.07078439581233513
      -0.026107540197756449 0.029318049347927928 0.036062275710609985
      -0.035296295978580507 0.032446157936625378 -0.013936703880642151
      -0.0083487135391243118 0.029637750902749383 -0.0079845574172355566
      -0.0033860940545497038 0.018798955752194278 0.045192593045173521
      -0.0052387487637027864 -0.02085577423238737 -0.045067283517424353
      -0.0065836897593969769 0.021604455030894511 0.025418320353404435
      -0.032996614818292268 0.0089448984221326775 -0.0059265610475410062
      -0.011847622912717695 -0.019079368443820098 0.004031692678921694
      -0.0090536915744917987 -0.020617643737477299 -0.012708598895143511
      0.0091908889871927645 -0.00078380426771087976 0.018673974029711358
      0.021400331998014419 -0.038679300202537029 -0.027410945055913166
      0.034788130785016989 -0.016481489899529883 -0.0071200140723629689
      -0.0016178213127685892 -0.021788256573300916 0.012750447824068249
      -0.0068303899394076819 0.0075819382302877792 0.0055398951250723123
      -0.007307315616481967 0.012527375648456698 0.01538362391508695
      -0.0090079526282514037 -0.0016049454606586072
      0.0022235873083827225 0.017918543648149158 -0.00059634851720506287
      0.010269691079875626 0.003647296370173277 -0.018390275835598675
      0.016794972555149341 -0.006835849975440361 -0.0077282138865121261
      -0.057458368738386952 -0.0029396024412811088 0.033488778011857775
      0.034294931336725093 0.020612200446713788 -0.030872658957924574
      -0.013295334444151766 0.027356540910146634 -0.023858632083545123
      0.016541788549449099 0.0012401011041446859 -0.00022866878911807564
      -0.012237020756396174 0.0063182492202533353 0.0023372131613996019
      -0.015096772757756772 -0.0084338563887906351 0.0056347792134786743
      -0.0028487413868918308 -0.0014162537285945535
      0.0077356523210268804 0.0040565925045785659 0.017111770493096218
      0.0055454147138224918 -0.015075062576661543 0.012705437346882899
      -0.0096535001446478412 -0.012425777799837404
      -0.00025145589626125048 -0.0074356777426009485
      0.014417594639109695 -0.0075169900663455396 0.0076052517530002381
      -0.032630692709315859 -0.0028626412303614747 0.0057508242573891212
      0.013212569887256255 -0.018285349832894662 -0.0046919402390677243
      -0.0036668477043959205 0.014626749215466984 0.021813454845554334
      -0.0043369347956711112 -0.012873476592345837 0.015349212530912457
      0.022385410117165588 0.0037326714746848872 -0.019866201533432996
      -0.052506995387943296 -0.005129732436197589 0.034683942832734571
      0.0023665713485149353 -0.034439774074469659 0.0072019078089549148
      0.0036091174905159475 0.011213472779260015 0.015214277481507813
      -0.0058356967514862877 -0.020166231238976894
      -0.0043064120288127368 0.042456793260001333 -0.01282819257755961
      -0.001917850930033318 -0.044994822427626958
      -0.00044242404058317871 0.041207954052939907 0.020177744344474256
      -0.022097228055258197 0.0083204422693873934 -0.0038544129637932568
      -0.0048518526053932245 0.012541509761659794 -0.014038426167224317
      0.0061349621528006097 0.015010314755406901 0.056090011949332649
      -0.018080287699447223 -0.016133290076346996 -0.083172089265541704
      0.00061892104968173586 0.033093569459972015 0.016942758611029712
      -0.029792021345717533 0.02694228546318336 0.01034912407073289
      0.011037595877989666 0.023550183821187072 -0.0042956748074724589
      -0.010146387329357876 -0.0020021998884850408 0.029380123601250453
      -0.010102701696430787 -0.00047614195525443081
      -0.039645572339037788 0.0042361817854260943 0.017455502364105414
      0.026457759351262444 -0.026124699601146814 0.0053645384171181884
      -0.0026435077398842878 0.0044013285522171508 -0.025064233813184535
      0.011979121357234147 -0.0070394517004681995 -0.0079973770131137982
      -0.037809707824671683 -0.0085697448820260032 0.030235492633177739
      0.039324734949093429 0.005544797531064744 -0.045170447671330521
      -0.0066924734096371306 0.034887485721175671 -0.014468751281226372
      0.016933685696230466 -0.0029800121264171578 -0.01606002752658495
      -0.00045415126233332962 0.016727456184639292
      0.00041290442778233984 -0.010619834545875702
      -0.0068248831877689405 -0.0032806464748282743 0.020034412339526998
      0.018694062959482644 -0.01511967871209712 0.0019666228772260747
      0.014044333946472592 -0.017411180573987904 0.015758229623228318
      0.0069051702634223364 -0.016905423092083254 0.027302051793267754
      0.010569185434752139 -0.0096489287818255758 -0.046943128347333309
      0.0061235682440120408 0.031686026775996856 0.052350490298327654
      0.017148514073504328 -0.027696536924125881 -0.034008042669427863
      0.035147586325405024 -0.012122107532158527 -0.00063010672933430461
      0.0087076334045453965 -0.016332127240823061 0.020743681180542269
      -0.0061664636291996148 -0.015381974562964855 -0.04007444150623525
      0.0026478203952812005 0.031386832375348131 0.042160201150073212
      0.014667479580249292 -0.04671600834641472 -0.015173737749359919
      0.025403552804921316 -0.033985882685228647 -0.012658136275898884
      -0.011317844386179839 0.0086297103651043969 0.019401549546567295
      -0.010732938955861866 0.0069750884890951359 -0.019428369678458738
      0.013232938161579081 -0.0065182472525765036 0.0019912360492008252
      0.014177279957499907 -0.01179987092979398 0.0055981870054670549
      0.015922483555336854 -0.0088086474520732618 0.0072654854777687156
      0.010857729404949413 -0.027726464849133839 0.025087724680191669
      0.0087961236924403857 0.0061934120016361571 -0.034846584409671956
      0.00055900181190189125 0.025145983471327044 0.040148913847286034
      0.010309361017063782 -0.040529861966302407 -0.021756351377147019
      0.034961648507427813 -0.030504871802816014 -0.0025230565857009665
      -0.014657435294337742 -0.096328005505993644 0.18343468307973615
      0.040256851001311232 -0.017139029546005689 -0.32489689348884099
      0.058055837150111728 0.13968205679461793 0.33937672302117827
      0.086605967886901739 -0.23777103841610264 -0.15010005998415402
      0.20684700605187253 -0.15887171698527489 0.00021042858706479822</_>
    <_>
      0.59117721798380063 0.57917492575522678 -0.10661675102515064
      -0.69033639749745601 -0.48881834048107436 0.40856861193287602
      0.40029545024170937 0.61860846888922383 -0.68166679879526226
      -0.84520573228265061 0.91232454644199723 -0.69177669325728663
      -0.13518273501043518 0.15821970817472575 -0.56799704436751774
      0.1170416559441757 -0.85354837111207071 0.83650760776937505
      -0.26250497928423216 0.18198058263680419 0.45767569455802493
      -0.75309097411928827 0.81028179911364562 0.073033542686939484
      -0.20110490565888614 0.85483713565589492 0.91533639415977475
      0.20296441137844465 0.38866830241614098 0.46377936378981605
      -0.55286629591186665 0.62966954207371562</_></weights></opencv_ml_ann_mlp>
</opencv_storage>
